100 256
99 0.05765558 -0.031582355 -0.008303578 -0.0024960586 0.06556705 0.051020384 0.047910523 -0.09321923 0.17009465 0.004096531 0.16711505 0.12576403 0.032526575 7.5178614e-05 0.0039529935 -0.040218618 0.030104544 -0.04367157 0.166978 0.11755356 -0.011666815 0.1375719 0.07240027 0.04019404 -0.05656778 -0.060323145 0.060889836 -0.0852338 0.05454785 0.028638463 -0.027663654 0.05306387 -0.2853673 -0.12867731 -0.07118161 0.051035535 -0.17142761 0.074731186 0.07993669 0.017221715 0.08590221 -0.20006312 -0.010100888 0.034283813 -0.0797678 0.046748333 -0.17370442 0.13639049 0.05379175 -0.03262186 0.07069219 -0.050985824 -0.011668928 -0.052329205 -0.059919816 0.0046603726 -0.29741567 0.06544796 -0.030741755 0.19938157 0.04006695 -0.03988341 -0.31254187 0.09601873 0.06621844 -0.084354065 0.0033450855 0.011926833 -0.051748347 -0.06636141 -0.0060268855 0.054685533 0.09645092 0.028412774 0.08328968 0.010906321 0.059737455 0.15446079 -0.07064423 0.11921171 -0.11457785 -0.23354577 -0.048485328 -0.025550589 -0.09871177 0.017805673 -0.10147368 0.0033465163 0.074370675 -0.07764177 -0.081467375 -0.23107934 0.11052319 0.06570517 0.11216946 0.0013731134 -0.2578881 0.27067098 0.058503684 -0.05426858 0.031482372 0.06124269 0.048791982 0.019466748 0.19916616 -0.07563376 0.056595672 -0.057836454 -0.119188085 -0.057992093 0.17910516 -0.20603667 -0.08014531 0.16457763 0.016668497 -0.07793744 -0.008661641 0.074237175 0.181984 0.038225345 0.051839445 0.13391094 0.018112998 0.0762625 0.13983399 0.024225075 0.13572757 0.17511159 -0.03854813 -0.043848988 -0.033909917 -0.038370416 -0.038025815 -0.08703939 0.15132579 0.0038222426 0.08632587 0.057371575 -0.11847238 0.14528222 0.05224196 -0.056163765 -0.13816121 -0.13455482 -0.015234322 -0.110817805 0.048388854 -0.0782511 0.047789704 0.07863095 -0.056674972 0.09986703 -0.11153738 0.035757802 0.06922825 0.094791666 -0.04762182 -0.2208177 -0.048477497 -0.11650387 0.053277753 0.07522066 -0.1464036 0.04754665 -0.022176528 0.15594067 -0.08051544 0.13414359 0.036568157 -0.02234048 0.30824515 0.021102764 0.16452806 0.08554599 -0.08060102 0.059682924 -0.037801657 0.042454474 0.032620978 0.07429453 0.15649113 -0.061987296 0.12994413 -0.074011676 -0.083977595 -0.0011847833 0.02612131 0.061625306 -0.021815743 -0.02489675 0.11162682 0.115164936 0.13425937 -0.13280676 0.204058 0.27995935 -0.05736183 -0.077253185 -0.04284725 0.003255927 -0.0051004644 0.02643609 0.006588515 0.22006416 -0.0105531085 -0.11949738 -0.07080566 0.0917308 -0.026434517 -0.08660927 0.0809882 0.15366352 0.040943485 0.048389286 -0.099900104 0.012623968 1.2130515e-05 -0.023647292 -0.09547731 -0.013403033 0.12456819 -0.0021414128 -0.0066332067 -0.06484377 0.060903493 0.024781048 -0.0020454023 -0.058706008 0.019074611 -0.1596455 -0.014319402 -0.090592094 0.07259209 -0.18748724 -0.057369154 0.11293603 0.032700773 -0.12311203 0.083990484 0.026622154 0.36308846 0.029518576 0.040621586 -0.051568694 -0.018680675 0.045996048 -0.11349129 0.015168084 -0.1614634 0.18794313 -0.0024886033 -0.04085721 0.0051123044 -0.11365787 0.02218297 0.10611554
72 0.05380008 -0.028688129 -0.010667726 -0.0018361686 0.06301338 0.05096184 0.04522821 -0.09466783 0.16530213 0.0035585216 0.16224442 0.1212652 0.031076662 0.0029328994 0.0050220736 -0.03805564 0.029780403 -0.04264505 0.1626189 0.114939354 -0.010213364 0.1367118 0.0722297 0.03795792 -0.057552867 -0.056223337 0.057950817 -0.07994202 0.055967875 0.027692981 -0.027676078 0.053553887 -0.2770564 -0.12347904 -0.0712933 0.049846116 -0.16527504 0.07086124 0.07798184 0.018274538 0.084643155 -0.19429578 -0.009432092 0.036045868 -0.077528484 0.047388967 -0.16961655 0.13327229 0.05463466 -0.031697463 0.06940757 -0.048673313 -0.010406686 -0.051540066 -0.055822324 0.007430455 -0.2905474 0.06560027 -0.031956095 0.19475628 0.038620718 -0.04098091 -0.3047966 0.09248181 0.064340666 -0.08324301 0.0062510124 0.015097496 -0.051717434 -0.066657275 -0.0048900247 0.053958718 0.09448474 0.02828425 0.07909212 0.011103408 0.060045205 0.15028387 -0.06938582 0.11429299 -0.1116751 -0.22744134 -0.047624927 -0.024520848 -0.09298581 0.018578561 -0.09994326 0.00086253014 0.073091164 -0.07588611 -0.08171544 -0.22462972 0.10473867 0.06228136 0.10946863 0.0007071046 -0.25070062 0.26381734 0.05656585 -0.0523765 0.03395852 0.061236538 0.046753515 0.016568158 0.1931984 -0.07554727 0.056618836 -0.05821523 -0.11824279 -0.057883218 0.17472489 -0.20060842 -0.07819941 0.15965886 0.015108029 -0.0748461 -0.011294252 0.072963625 0.1737795 0.036656093 0.0526655 0.13230734 0.020036707 0.07331054 0.13693431 0.023722405 0.13043644 0.1743946 -0.039360613 -0.04576764 -0.032720797 -0.0375908 -0.034870688 -0.083211996 0.14529845 0.0026950755 0.08066956 0.053147156 -0.11428941 0.14027204 0.049841527 -0.052791804 -0.13330427 -0.12840943 -0.014964239 -0.10873113 0.047042016 -0.07680484 0.045818318 0.076992676 -0.054461595 0.09867738 -0.10962767 0.03450611 0.06803801 0.094738245 -0.044524398 -0.21376339 -0.045682643 -0.11200144 0.05112511 0.07327541 -0.142928 0.046794605 -0.023942765 0.1533687 -0.076840624 0.12850441 0.032570206 -0.02322081 0.29981807 0.021180812 0.16055474 0.0818707 -0.081675746 0.054944683 -0.035412125 0.042785194 0.031129463 0.07404164 0.15436076 -0.058244605 0.12484531 -0.071150474 -0.081074476 -0.0048040813 0.024073942 0.0631083 -0.020324243 -0.027118327 0.10907719 0.11124767 0.13182515 -0.1291056 0.19840613 0.27122167 -0.056215454 -0.07518516 -0.042107508 0.005603511 -0.0070929127 0.02404319 0.009090199 0.21536586 -0.010516013 -0.11716243 -0.06579984 0.086560294 -0.026031505 -0.08343127 0.078985095 0.14994967 0.04166124 0.048683424 -0.095218234 0.015181193 0.0029536334 -0.020042118 -0.09164818 -0.012544596 0.12247832 -0.00090979267 -0.007596317 -0.06445564 0.05878407 0.025148401 -0.0051935874 -0.057050988 0.017202353 -0.15736817 -0.012545046 -0.08986937 0.06945949 -0.18119065 -0.054803208 0.11159361 0.031982627 -0.121642716 0.079014525 0.024554955 0.35126355 0.02820928 0.04085799 -0.049728543 -0.01799019 0.04356873 -0.108746685 0.016338594 -0.15727007 0.18185735 -0.004096856 -0.041240443 0.004883108 -0.11108212 0.020523688 0.106595345
7 0.053486872 -0.02967447 -0.009620396 -0.0028930146 0.06660226 0.04976425 0.0461964 -0.095704496 0.16624393 0.0066614836 0.1649501 0.124363154 0.03121704 0.001569811 0.004032399 -0.040038943 0.03103046 -0.04450044 0.16654994 0.11646666 -0.013925153 0.13881631 0.07431939 0.03712963 -0.05671352 -0.0601187 0.062419187 -0.083460175 0.055111647 0.029090209 -0.026718702 0.05515667 -0.2811526 -0.12512763 -0.073403426 0.0470215 -0.16869737 0.07228822 0.08019269 0.016268346 0.08484216 -0.19601049 -0.010595622 0.034929555 -0.078908816 0.047629643 -0.17282616 0.1358892 0.052452967 -0.02944663 0.06862195 -0.05008968 -0.008617329 -0.051889867 -0.055522088 0.0067827916 -0.2949586 0.06806505 -0.030492308 0.1969028 0.03966749 -0.039667007 -0.30813277 0.09379162 0.0656445 -0.08410087 0.005233182 0.015499257 -0.0484427 -0.06461921 -0.005415873 0.052552667 0.09448658 0.027975293 0.08104872 0.009211423 0.060291234 0.15201135 -0.07228079 0.114892945 -0.1121458 -0.23089458 -0.048227582 -0.02551597 -0.0962009 0.02058044 -0.099128194 0.0025115493 0.07560688 -0.0786984 -0.0814041 -0.22614488 0.10943905 0.06262741 0.11150636 0.0021656218 -0.25423703 0.2652244 0.057779033 -0.053220496 0.033421524 0.060799602 0.04879295 0.0191512 0.19459035 -0.07590315 0.05809175 -0.05812314 -0.11975093 -0.057298716 0.17679527 -0.20403291 -0.08004321 0.16216034 0.015949663 -0.07630311 -0.00905934 0.07111406 0.17937893 0.0400223 0.05323891 0.13194793 0.019035423 0.07310955 0.14031589 0.021816524 0.13295285 0.17444472 -0.038744517 -0.04587874 -0.03204179 -0.040457983 -0.036357928 -0.085465424 0.14959496 0.0050470876 0.082096666 0.05536558 -0.11748155 0.14559795 0.048114143 -0.05297732 -0.13610296 -0.133529 -0.017663684 -0.1119499 0.049844142 -0.08020562 0.04554825 0.07583646 -0.053690776 0.10052437 -0.11246988 0.03430626 0.069251165 0.09400674 -0.046740387 -0.21671598 -0.04437142 -0.11523885 0.05120342 0.07298525 -0.14753605 0.04927966 -0.023987744 0.15412304 -0.07714184 0.12927054 0.03362142 -0.022412675 0.30325285 0.02177309 0.16108827 0.08168909 -0.07988858 0.05892607 -0.034672126 0.041862912 0.03306842 0.07457246 0.1583903 -0.06094938 0.12985696 -0.07419788 -0.08154026 -0.0020001028 0.024444785 0.06151683 -0.022897668 -0.02704971 0.112319134 0.11222435 0.13268162 -0.13137503 0.20010914 0.27662927 -0.054893274 -0.07694775 -0.03975504 0.004317986 -0.0068469783 0.02424411 0.007719485 0.21912211 -0.01132749 -0.115791805 -0.06901116 0.08812442 -0.029224481 -0.08342896 0.08231026 0.14859098 0.043677233 0.046326857 -0.0995494 0.014739981 0.0020547975 -0.0240153 -0.094444 -0.014124356 0.12232687 -0.00032432037 -0.007544045 -0.0656223 0.057469778 0.02331707 -0.0027816638 -0.05502071 0.017929927 -0.158994 -0.015026527 -0.09032262 0.07289738 -0.18331826 -0.057232272 0.11260276 0.032004423 -0.122959636 0.080380686 0.027759578 0.35939598 0.030310836 0.039913718 -0.0508446 -0.016243843 0.04267361 -0.11369345 0.015324471 -0.1579755 0.18456723 -0.0013627382 -0.04245688 0.0023520978 -0.1132458 0.021991959 0.10642084
83 0.056862053 -0.03131786 -0.008585842 -0.004905941 0.06568535 0.052051194 0.047491353 -0.09442012 0.1656103 0.00685024 0.16613261 0.1236269 0.03156328 -0.00013489103 0.0043263603 -0.04160897 0.030388422 -0.043509465 0.16522147 0.11629262 -0.0111667365 0.13878383 0.07346261 0.038574114 -0.056883104 -0.057260573 0.0608092 -0.083393246 0.055645846 0.0271172 -0.028099287 0.05477191 -0.28134614 -0.12734143 -0.073630914 0.049579218 -0.16789655 0.07217168 0.07922484 0.017220974 0.085324615 -0.19592153 -0.010476508 0.03537195 -0.07747845 0.047034536 -0.17016174 0.13621074 0.053157046 -0.030797416 0.06946798 -0.04971069 -0.01191363 -0.050792802 -0.058800302 0.0056517133 -0.29261732 0.06723867 -0.031817 0.19506916 0.038961876 -0.038413614 -0.31053516 0.09495965 0.06335979 -0.08593001 0.005711013 0.012179787 -0.05194893 -0.06802625 -0.0059997328 0.051669296 0.09232381 0.030195728 0.08191332 0.008946364 0.05893615 0.15255216 -0.07038271 0.11608251 -0.11132779 -0.23259468 -0.04511115 -0.027209383 -0.094145365 0.01979305 -0.100262485 0.0037947737 0.07306125 -0.07824666 -0.08289896 -0.23042186 0.106088944 0.06459306 0.109467626 -0.0010334812 -0.25685096 0.26693666 0.054434035 -0.052483145 0.03429935 0.06383471 0.045185346 0.019044938 0.19646637 -0.07634498 0.056794453 -0.057580892 -0.11698707 -0.05742989 0.17803185 -0.20406252 -0.08108372 0.16365302 0.01490185 -0.07793822 -0.009458227 0.07505515 0.17752686 0.03817978 0.05397383 0.13273175 0.021148838 0.07411275 0.13862357 0.023211056 0.13475938 0.17651476 -0.03654462 -0.045788836 -0.032065578 -0.040784378 -0.038596418 -0.085545585 0.14800675 0.0019856463 0.083975546 0.055346742 -0.11641139 0.14422394 0.050185792 -0.05255682 -0.13721891 -0.13079956 -0.016664715 -0.109784015 0.049851187 -0.07761912 0.04952082 0.07673917 -0.053472243 0.098553345 -0.11025359 0.037464317 0.07040726 0.094032444 -0.04884619 -0.21944743 -0.044733796 -0.114289425 0.05180331 0.07321383 -0.14628835 0.04953554 -0.023561355 0.15421543 -0.07807574 0.13197173 0.036475174 -0.022864167 0.30294982 0.022759823 0.16130444 0.08423262 -0.07967108 0.0564788 -0.03534592 0.043862965 0.034160145 0.074877545 0.15874097 -0.060515832 0.12868284 -0.075483434 -0.08252497 -0.00038850988 0.027478058 0.062112737 -0.021204166 -0.025322566 0.11247982 0.111818776 0.13470909 -0.1318955 0.20047517 0.2762118 -0.05484212 -0.07899171 -0.0429046 0.004631094 -0.00706257 0.027296904 0.006931699 0.21731086 -0.013183615 -0.116461635 -0.069586575 0.08736976 -0.026069723 -0.08397012 0.08082665 0.14992066 0.041947667 0.047384772 -0.100401774 0.014476502 0.0008797037 -0.020870246 -0.09418779 -0.014737219 0.12154171 -0.0028296742 -0.007017859 -0.06396676 0.05973219 0.025517182 -0.0017833115 -0.05661561 0.01630336 -0.15994853 -0.01166641 -0.08858601 0.07247305 -0.18339717 -0.054527715 0.11309629 0.029935144 -0.122411646 0.08174061 0.02603746 0.36010075 0.029813534 0.041708615 -0.051905435 -0.01936046 0.042168785 -0.11307049 0.0130141815 -0.16034704 0.18675336 -0.005126962 -0.041041024 0.001167868 -0.113932535 0.021309724 0.10796383
19 0.05382723 -0.028860154 -0.009122162 -0.0036329504 0.065250516 0.050648503 0.045858547 -0.094472334 0.16547137 0.004818466 0.1635394 0.12331626 0.03280764 0.0018808144 0.0066177845 -0.041164577 0.031737782 -0.041467156 0.16254076 0.11322684 -0.01072023 0.13667668 0.07123959 0.037281647 -0.05745751 -0.05795763 0.05791881 -0.08171783 0.054719023 0.02721938 -0.029085776 0.052002627 -0.27775663 -0.1249338 -0.07267502 0.046007585 -0.16690256 0.07128625 0.07900465 0.017065143 0.084632464 -0.19602376 -0.011355257 0.035461444 -0.07798691 0.04723087 -0.17061539 0.13479868 0.052194215 -0.029016765 0.06851191 -0.048432168 -0.011258245 -0.04990302 -0.055173058 0.0049926457 -0.28889865 0.066434436 -0.033573695 0.19402407 0.03854135 -0.040770654 -0.30491093 0.093417235 0.06273878 -0.0834829 0.00653013 0.014479833 -0.048715726 -0.0648498 -0.0074027646 0.049926557 0.092085436 0.029774461 0.079368316 0.008656465 0.05817978 0.14874107 -0.070328414 0.113193154 -0.11062044 -0.23096137 -0.044589188 -0.025568381 -0.09564523 0.01745099 -0.09618535 0.0040824926 0.07351424 -0.07422205 -0.08310219 -0.22685553 0.10703326 0.06192036 0.111047745 -0.00039588238 -0.24980421 0.2634007 0.05552422 -0.0504232 0.033782303 0.06114238 0.045458037 0.016983304 0.19382748 -0.07619403 0.055229325 -0.05869553 -0.11624727 -0.0579273 0.17543355 -0.20154426 -0.08030325 0.15945816 0.014660449 -0.07503184 -0.010014251 0.07323916 0.17542379 0.037374657 0.052624915 0.13096136 0.018029597 0.07090497 0.1363361 0.021626621 0.12867364 0.17439504 -0.03764098 -0.044008736 -0.03366057 -0.040510856 -0.037286937 -0.083542295 0.14646295 0.0032874255 0.08202087 0.052834224 -0.11432935 0.14090739 0.04858051 -0.051706217 -0.13593626 -0.1291656 -0.016558457 -0.11053701 0.048936278 -0.07733584 0.044906266 0.077829756 -0.05392552 0.095969446 -0.10904301 0.034798175 0.06772255 0.092371285 -0.04622637 -0.2146746 -0.04595868 -0.11245283 0.053277273 0.07092913 -0.14476125 0.04735764 -0.023592943 0.15256913 -0.07847798 0.12885971 0.03259045 -0.023542693 0.29964536 0.02264544 0.16181128 0.0828965 -0.07879546 0.05803236 -0.035946473 0.042539384 0.03060672 0.070488095 0.15510869 -0.060968123 0.12735075 -0.07099372 -0.07885381 -0.004422708 0.025491953 0.06282932 -0.020061832 -0.024475785 0.109648146 0.11089377 0.13179353 -0.12770621 0.19989567 0.27166638 -0.054499235 -0.07823704 -0.039045457 0.0053094365 -0.005344215 0.026332483 0.00850497 0.21330371 -0.011952456 -0.11770577 -0.06594393 0.08764446 -0.028079579 -0.082336225 0.079688944 0.14837907 0.040800564 0.049281042 -0.0965065 0.015673552 0.0031221656 -0.02359024 -0.091871895 -0.014158734 0.12205902 -0.00232012 -0.0064787953 -0.067242205 0.057915732 0.024429675 -0.0036978112 -0.055285975 0.018308343 -0.15603438 -0.01424855 -0.09059289 0.06878456 -0.18096845 -0.05734198 0.10863661 0.031677607 -0.11894708 0.08067326 0.026096173 0.3546606 0.031038865 0.040444836 -0.052861292 -0.018404422 0.044909727 -0.11047662 0.013222584 -0.15753317 0.18514979 -0.004177867 -0.040346913 0.004160344 -0.11052855 0.022094928 0.10661633
59 0.05381626 -0.0298487 -0.010204824 -0.0044745374 0.06559906 0.049180984 0.046967175 -0.09185212 0.16363628 0.004687851 0.16026385 0.12463538 0.03096789 -0.00045600344 0.004435894 -0.039472148 0.03168232 -0.043458585 0.16374466 0.113129884 -0.013717978 0.13559303 0.07142746 0.0376317 -0.056167357 -0.059445627 0.0601538 -0.08052305 0.05383257 0.025605366 -0.0265032 0.052853797 -0.27532563 -0.12292777 -0.07052245 0.04832995 -0.16583277 0.07327686 0.07644305 0.018399943 0.08320201 -0.19207928 -0.011116431 0.03260587 -0.07870426 0.047509994 -0.17054065 0.13380891 0.05417238 -0.03058899 0.069863684 -0.049738936 -0.010860504 -0.05210952 -0.057046242 0.0063939327 -0.2895854 0.06744517 -0.029727977 0.19446832 0.040277503 -0.039644927 -0.30215618 0.08975986 0.063401744 -0.08436088 0.005850993 0.013178836 -0.048120048 -0.06619785 -0.006052424 0.052049305 0.09063742 0.030757863 0.07824117 0.008047195 0.05810633 0.15065317 -0.07036616 0.1134049 -0.109582916 -0.23044862 -0.043961063 -0.024606539 -0.09582461 0.019263076 -0.09883397 0.003728263 0.074929886 -0.07683614 -0.08085019 -0.2225864 0.105821386 0.06404345 0.10686986 0.0017940918 -0.25238323 0.26119393 0.055116165 -0.05101855 0.030249028 0.062256865 0.04668818 0.018172417 0.19359069 -0.076042995 0.057809502 -0.0566309 -0.11514509 -0.056458287 0.1742193 -0.20064974 -0.07858442 0.1584756 0.014230157 -0.07697702 -0.007770606 0.07244439 0.17554744 0.039861195 0.051095024 0.13171254 0.01791191 0.073985584 0.13849965 0.023936536 0.12918466 0.17167443 -0.0373503 -0.04419064 -0.03252257 -0.040798116 -0.036858544 -0.08482374 0.14613158 0.004209375 0.0807615 0.05620847 -0.11591184 0.14007567 0.047880583 -0.054204162 -0.13636185 -0.13184403 -0.015195528 -0.106923565 0.045660514 -0.077721894 0.046344705 0.07808596 -0.05552126 0.09722185 -0.11194174 0.033506766 0.06942982 0.09424011 -0.04717203 -0.21228714 -0.04431206 -0.11217335 0.05241705 0.071213104 -0.14574625 0.04714323 -0.023972495 0.1516965 -0.07818205 0.13067763 0.033703033 -0.020803567 0.30044243 0.020733783 0.16212355 0.08150926 -0.08052159 0.055490468 -0.035047214 0.04230117 0.032425575 0.0699076 0.15312208 -0.057628736 0.1264112 -0.07313429 -0.07953801 -0.0018707935 0.024771564 0.061491616 -0.020932477 -0.024644012 0.11017505 0.11136934 0.12965402 -0.12977837 0.19641937 0.26941055 -0.05526805 -0.07561878 -0.040299825 0.006431013 -0.006444092 0.023554951 0.006728049 0.21580298 -0.009665293 -0.11667661 -0.06792759 0.08762734 -0.02862812 -0.08280847 0.080012105 0.14885892 0.042155128 0.04615492 -0.09711879 0.014491519 0.002044346 -0.022997053 -0.093036115 -0.01172034 0.12137202 -0.0030228526 -0.007362321 -0.06644331 0.056596406 0.026251681 -0.0017538321 -0.05441567 0.019167196 -0.15665519 -0.0132973315 -0.08955963 0.07209534 -0.18143065 -0.057200186 0.11167108 0.02932162 -0.11956669 0.081052415 0.024733609 0.35030672 0.028145727 0.03901583 -0.05250444 -0.017574202 0.043136474 -0.1122356 0.013898775 -0.15760987 0.18088435 -0.0038901991 -0.04331059 0.0030023346 -0.11141017 0.024077049 0.10543553
42 0.057771545 -0.031407885 -0.010882621 -0.0015768241 0.06708045 0.050065365 0.049057517 -0.09628959 0.16997902 0.0042345575 0.16511264 0.12647653 0.034286696 0.0014177919 0.0065206983 -0.041427765 0.03004929 -0.04489632 0.1678283 0.115983315 -0.011480194 0.13806053 0.075254366 0.04037393 -0.057026666 -0.058048505 0.06238784 -0.08531336 0.056007203 0.025942827 -0.02959891 0.05279849 -0.28195864 -0.1279462 -0.07271573 0.04990317 -0.1708813 0.07418581 0.07899205 0.0187113 0.085524045 -0.19803354 -0.008635455 0.03588797 -0.076888576 0.04914323 -0.17157257 0.13712895 0.057250462 -0.031824816 0.07078892 -0.047104273 -0.011851321 -0.053202003 -0.05804661 0.0049434192 -0.29516345 0.0691043 -0.0336307 0.19827262 0.041350346 -0.038305044 -0.3107047 0.09291158 0.0665664 -0.08647436 0.005023367 0.013634444 -0.049014755 -0.06687902 -0.0061060083 0.054601267 0.09327192 0.028894238 0.081424244 0.0077761025 0.06354891 0.15472804 -0.07389104 0.120039985 -0.11465636 -0.23655725 -0.046626233 -0.024843527 -0.09679867 0.020163137 -0.10138331 0.0023545893 0.07389311 -0.07576807 -0.08389315 -0.23073177 0.10867716 0.06360549 0.11313807 -0.0012312975 -0.25702828 0.27136144 0.056578632 -0.054345053 0.031445418 0.063672185 0.04959103 0.016724024 0.19680013 -0.07841237 0.05759836 -0.0593782 -0.11857466 -0.05852341 0.17936899 -0.20348318 -0.07950786 0.16653033 0.01361569 -0.080038816 -0.01107188 0.07515857 0.1814907 0.03942386 0.05118605 0.13524157 0.020532101 0.074961536 0.14171317 0.022913022 0.13244365 0.17648111 -0.039190747 -0.044227626 -0.031257894 -0.039202392 -0.03789786 -0.08707774 0.14878851 0.0023410732 0.08345712 0.057526954 -0.11605971 0.14742684 0.051922236 -0.053982206 -0.13904124 -0.13183656 -0.018404802 -0.112646386 0.046506837 -0.07971712 0.04662741 0.07786944 -0.055319235 0.09868629 -0.11279739 0.035096835 0.071374156 0.094963856 -0.04642024 -0.21998276 -0.047471642 -0.11628598 0.05420528 0.072023146 -0.14889926 0.046777483 -0.024546238 0.15633696 -0.07723686 0.13474739 0.037106916 -0.02180255 0.30648243 0.022204375 0.16402376 0.08564413 -0.08108426 0.057675917 -0.033957347 0.04234476 0.032150526 0.07459329 0.15639058 -0.05999333 0.1311257 -0.075166784 -0.08284607 -0.00061625434 0.02469406 0.061597146 -0.02050321 -0.025642125 0.111954816 0.111747175 0.13510264 -0.13305855 0.20304218 0.27804565 -0.057464756 -0.07888806 -0.041038755 0.004573399 -0.0069501335 0.025749482 0.008870735 0.2195836 -0.01081855 -0.1178223 -0.06860171 0.091339365 -0.029643204 -0.083249316 0.08094863 0.1517361 0.042573098 0.047544297 -0.10036135 0.01303092 0.0022764823 -0.020894317 -0.09659 -0.016029363 0.12512541 -0.0005282015 -0.003875579 -0.06612091 0.0570166 0.025080463 -0.005164925 -0.05884846 0.01601657 -0.16054982 -0.014572923 -0.092933156 0.07311016 -0.18667887 -0.059044354 0.11324065 0.03275364 -0.12293758 0.08402114 0.02548799 0.36239156 0.031974226 0.042144347 -0.05243632 -0.018898683 0.045016468 -0.11528181 0.014502392 -0.16178575 0.18723218 -0.002045619 -0.04325765 0.0026533746 -0.1134661 0.024587398 0.10711335
16 0.05399848 -0.02996497 -0.008931119 -0.0038538796 0.065078326 0.0516237 0.046486598 -0.09303429 0.16677645 0.005250888 0.16507839 0.12452376 0.031179156 0.0005178025 0.0072550033 -0.04156028 0.030871652 -0.045314535 0.16720285 0.11504492 -0.011553212 0.13778307 0.07138117 0.038778894 -0.05754545 -0.056980494 0.060988482 -0.08274863 0.05547606 0.02823278 -0.027386993 0.05408108 -0.2821191 -0.1266491 -0.07292871 0.05012025 -0.16618378 0.07546736 0.08058542 0.016449092 0.08693934 -0.19716604 -0.008371655 0.03430494 -0.07626602 0.047714677 -0.17340375 0.13322471 0.053134758 -0.03093722 0.07002644 -0.05078997 -0.011288396 -0.051411673 -0.057510607 0.007620587 -0.295178 0.065084726 -0.031036505 0.19424745 0.039659597 -0.039093945 -0.3098233 0.09133644 0.06584009 -0.08536715 0.0046766484 0.01327039 -0.04965093 -0.06567035 -0.0044420846 0.052602414 0.09403472 0.029151008 0.08277006 0.010576196 0.058205828 0.15105908 -0.072039455 0.116575874 -0.11164129 -0.23124894 -0.046834517 -0.025265375 -0.09806666 0.020860052 -0.10108043 0.0010995242 0.07404887 -0.07619971 -0.08033516 -0.22998711 0.10906228 0.062698975 0.11040376 0.0011097414 -0.25656712 0.26564178 0.056533076 -0.05266713 0.030721646 0.062561385 0.045777466 0.01888025 0.19641384 -0.076438285 0.057967123 -0.058509775 -0.11793726 -0.057572197 0.17734152 -0.20278732 -0.07816852 0.16368206 0.015373325 -0.078361295 -0.0096968785 0.07264341 0.17654379 0.038141076 0.05294821 0.13165455 0.020356469 0.0752482 0.13688849 0.021998394 0.13391003 0.17468837 -0.037301447 -0.044273637 -0.030291092 -0.040889412 -0.03542746 -0.08560407 0.14977792 0.0038254433 0.083857216 0.054248963 -0.115901075 0.14572215 0.05070241 -0.05529655 -0.13751344 -0.13061294 -0.01695069 -0.112630114 0.04781054 -0.08037801 0.048754767 0.07721461 -0.05522843 0.09816138 -0.112372085 0.037194546 0.07017129 0.0956585 -0.044875298 -0.21912716 -0.048046954 -0.11457515 0.05302468 0.07125319 -0.1475918 0.04785818 -0.02277312 0.15520415 -0.07843736 0.13287331 0.034540337 -0.020714352 0.3038504 0.023129351 0.16105127 0.08249882 -0.08024831 0.0575914 -0.03517973 0.041864026 0.03407841 0.0717352 0.15719818 -0.061695103 0.12912242 -0.07502726 -0.08316813 -0.0013216572 0.026292643 0.06350322 -0.021288011 -0.027034404 0.110436015 0.11416503 0.1309362 -0.1299515 0.19904307 0.27583674 -0.054501243 -0.07776642 -0.042413037 0.0051102573 -0.009247394 0.02625447 0.009240048 0.21732982 -0.010485439 -0.11860377 -0.06732005 0.08837085 -0.02598643 -0.084101945 0.08102342 0.14902337 0.043235704 0.04965471 -0.10007035 0.012670713 0.0005727156 -0.022885114 -0.09241993 -0.01367354 0.12234069 -0.0035446244 -0.0068675634 -0.0677825 0.057689235 0.025741715 -0.004797378 -0.055561855 0.018915191 -0.15944195 -0.0136214625 -0.09107728 0.070814766 -0.18423249 -0.054595426 0.11180142 0.030447429 -0.12159093 0.08394126 0.028070785 0.35967472 0.028919013 0.041039895 -0.05260316 -0.019690743 0.04174583 -0.114305966 0.015212105 -0.16030116 0.18612087 -0.0027562915 -0.043836232 0.0031332693 -0.11231038 0.021312872 0.10846822
64 0.05324222 -0.029402629 -0.009851085 -0.0022414248 0.06616425 0.047697958 0.045400217 -0.09438919 0.1647849 0.006046623 0.16318317 0.1237884 0.033758696 -0.0008294867 0.006579957 -0.037801124 0.029876154 -0.043669753 0.16408052 0.114263356 -0.012698815 0.13597628 0.07183679 0.0367184 -0.055648357 -0.059085682 0.060924932 -0.081555136 0.05452607 0.024832627 -0.029239416 0.051373783 -0.27622828 -0.12309352 -0.07079267 0.050157405 -0.16406456 0.0723157 0.07810416 0.018002838 0.08614166 -0.19484071 -0.010580555 0.032675624 -0.07705837 0.048659444 -0.16830295 0.13478085 0.054355867 -0.031568844 0.06872197 -0.047534816 -0.009471711 -0.051606823 -0.057437878 0.0058179866 -0.28820238 0.064220384 -0.031668425 0.19468991 0.03930502 -0.038086493 -0.30415645 0.09268439 0.064859025 -0.08550959 0.0042328886 0.01153525 -0.049397282 -0.067833975 -0.0072540105 0.05289821 0.09245697 0.030060414 0.07882119 0.0107785165 0.06104222 0.15069856 -0.07116845 0.11761223 -0.11024244 -0.23048067 -0.046228163 -0.026418554 -0.09646239 0.019916361 -0.0980034 0.0038993591 0.07481263 -0.077744424 -0.07953501 -0.22687156 0.10794352 0.06276848 0.11022445 -0.00080170244 -0.2500238 0.26312703 0.0538642 -0.052711688 0.032590527 0.05965708 0.04580028 0.01886907 0.19386943 -0.07460171 0.056596305 -0.056664303 -0.11589333 -0.05454705 0.17614058 -0.20076871 -0.07952629 0.16234241 0.016778033 -0.0765905 -0.009305782 0.07198401 0.1741945 0.036827154 0.051430836 0.13187903 0.018850997 0.071052685 0.13806757 0.02136209 0.12980723 0.17273489 -0.037287563 -0.045986045 -0.030619087 -0.040790204 -0.038550667 -0.084440775 0.14544839 0.005520482 0.08180558 0.05613202 -0.11330062 0.14385065 0.048062872 -0.052955575 -0.13592687 -0.13155922 -0.017107818 -0.10930503 0.04730245 -0.07900247 0.047015857 0.078275256 -0.055531625 0.09908388 -0.10880956 0.034524485 0.06998756 0.09351858 -0.046641752 -0.21591622 -0.044784665 -0.11251164 0.05023383 0.07101587 -0.14383793 0.04732115 -0.02277247 0.15269306 -0.07736016 0.12963751 0.032951493 -0.023894537 0.2986089 0.022430308 0.16149078 0.08207677 -0.08039249 0.057489492 -0.03488635 0.04274478 0.0320573 0.072191946 0.15631075 -0.05773639 0.12726736 -0.07323304 -0.08051401 -0.0035762924 0.026874756 0.061335683 -0.021000827 -0.02665741 0.10893669 0.1123832 0.1323052 -0.12808906 0.19935167 0.27327496 -0.05520699 -0.076467104 -0.04042515 0.0055785715 -0.0061785458 0.02620145 0.008827761 0.21501654 -0.012831389 -0.11659708 -0.06860951 0.08948639 -0.028777728 -0.08239269 0.07819366 0.15010773 0.04289761 0.04953791 -0.0982725 0.0145983575 0.0030990397 -0.02263132 -0.09242943 -0.014752502 0.122816384 -0.0030481638 -0.004649559 -0.06379311 0.059006196 0.026260993 -0.004967599 -0.05651926 0.015462427 -0.15835969 -0.011344125 -0.08896192 0.07228195 -0.18090436 -0.05451735 0.11049408 0.03049961 -0.12188367 0.08128 0.025721582 0.3553563 0.02967712 0.04208174 -0.049888007 -0.01671815 0.043221764 -0.1115999 0.015783269 -0.15647794 0.18348707 -0.004113794 -0.04276359 0.003262473 -0.110643186 0.024075555 0.10607722
24 0.057682812 -0.02931104 -0.0088406075 -0.0046773558 0.067217596 0.049709804 0.04568481 -0.092766136 0.1669489 0.004786073 0.16376264 0.12634817 0.032896105 -0.0005945628 0.005579387 -0.04022045 0.032852266 -0.044009294 0.16799979 0.115774155 -0.013318154 0.13675885 0.071678214 0.039098892 -0.056104638 -0.059422545 0.06252848 -0.08293384 0.05413669 0.028922506 -0.02851979 0.05451915 -0.2820433 -0.12534755 -0.07273525 0.047555275 -0.16679561 0.07413226 0.080435224 0.01681012 0.08432069 -0.1991655 -0.010741893 0.035284486 -0.07778132 0.04657227 -0.17123179 0.13583706 0.05433582 -0.029619513 0.070438765 -0.04739902 -0.009878483 -0.05058575 -0.057686426 0.0043890537 -0.29540116 0.06693353 -0.03239504 0.19688031 0.038303737 -0.04103215 -0.30925903 0.09566104 0.06463746 -0.086059295 0.006750914 0.012248633 -0.051327452 -0.06727744 -0.006551343 0.052432455 0.09504585 0.027878307 0.08150751 0.011111617 0.062512286 0.15307385 -0.07357243 0.11678109 -0.114731655 -0.23222078 -0.049147204 -0.024779597 -0.09824426 0.018980198 -0.09903274 0.0031468768 0.07308446 -0.0791666 -0.08293008 -0.23034826 0.106129386 0.06273759 0.111826934 0.0018463217 -0.25725767 0.26660016 0.057307832 -0.05474696 0.031892527 0.06393652 0.047124818 0.016216995 0.19590476 -0.07610547 0.05592009 -0.05702242 -0.11838489 -0.058342602 0.17878357 -0.2050346 -0.07999475 0.1637939 0.015986359 -0.07671297 -0.009169764 0.07232827 0.17899325 0.03749687 0.05145316 0.13304488 0.019217812 0.0739351 0.13957298 0.02064543 0.13474621 0.17405277 -0.039638255 -0.04552372 -0.030797044 -0.037720148 -0.036835752 -0.08591725 0.14915723 0.0020656455 0.08514317 0.054316938 -0.11764494 0.14313589 0.049453128 -0.054947667 -0.13656013 -0.13417149 -0.017884418 -0.113153346 0.04831524 -0.080501616 0.048466954 0.07628823 -0.053946402 0.09830454 -0.111211374 0.03583098 0.06722861 0.094339505 -0.047353223 -0.2170615 -0.046093475 -0.11485411 0.05392438 0.07294993 -0.14685027 0.04691452 -0.023072736 0.15326074 -0.077945694 0.13016687 0.037158746 -0.024040971 0.3069578 0.021278828 0.1637109 0.08278877 -0.08050789 0.05637626 -0.037299395 0.043102976 0.034359712 0.07344649 0.15588383 -0.060839143 0.12937488 -0.075684816 -0.08186975 -0.0023226412 0.024540124 0.062799744 -0.022793565 -0.027157824 0.11167519 0.11096472 0.1316709 -0.1291555 0.20058618 0.27499333 -0.05549422 -0.07543592 -0.03964694 0.0039628884 -0.008914931 0.02560554 0.0069642523 0.21889116 -0.010576018 -0.11693957 -0.067261025 0.08759969 -0.029865248 -0.0841831 0.081656985 0.1499756 0.04233148 0.048867248 -0.09798428 0.012965385 0.00021729543 -0.020647671 -0.09353196 -0.014204665 0.120874986 -0.0019446778 -0.0051929746 -0.06491016 0.056929633 0.024842141 -0.0030898103 -0.05504984 0.017161429 -0.15927877 -0.013557037 -0.08986289 0.07358385 -0.18533064 -0.05787411 0.11198296 0.032871056 -0.12402806 0.08137215 0.026243685 0.36068153 0.029580457 0.04142813 -0.052940607 -0.017829694 0.043911006 -0.112289734 0.014374355 -0.15989141 0.18731776 -0.0031378216 -0.042458195 0.0021640342 -0.11336375 0.024905415 0.106910154
45 0.053223927 -0.031816434 -0.00888697 -0.002990643 0.06738959 0.051081154 0.048485532 -0.09549663 0.1666477 0.007308017 0.16205193 0.124951296 0.03322074 0.0013434845 0.006147328 -0.03833719 0.032127347 -0.042861186 0.16779768 0.113389164 -0.013975843 0.13649166 0.073191 0.037381474 -0.05771862 -0.058359116 0.059758004 -0.0825232 0.05624642 0.027981857 -0.026776766 0.051943935 -0.2807348 -0.12643707 -0.073755465 0.048141487 -0.16881979 0.07386051 0.07962184 0.015701195 0.083803944 -0.19510251 -0.011776682 0.032452416 -0.078985885 0.048004538 -0.17023806 0.1358365 0.056386635 -0.030292345 0.06769361 -0.047359183 -0.009344172 -0.050737876 -0.057637356 0.004480892 -0.29453173 0.06780691 -0.030821169 0.19596983 0.038250033 -0.03947697 -0.30869615 0.09296184 0.065610856 -0.08360733 0.0045189816 0.014393725 -0.05077995 -0.064559124 -0.004070775 0.05313323 0.09224215 0.028286807 0.083312094 0.010509318 0.058502726 0.15304197 -0.07230669 0.11578299 -0.11197985 -0.23067905 -0.048482344 -0.025795761 -0.09605392 0.019067409 -0.09786171 0.0047095222 0.076287955 -0.07551605 -0.08446186 -0.22861204 0.10766888 0.06226834 0.11144861 -2.8708937e-05 -0.25509834 0.26839048 0.05473644 -0.0503845 0.033182822 0.0630474 0.04892233 0.017269569 0.1969861 -0.07442531 0.056454226 -0.05627506 -0.11959778 -0.057696566 0.1778407 -0.20129241 -0.08062811 0.16424973 0.016255613 -0.077349685 -0.009591114 0.07150344 0.1764142 0.040975846 0.054313265 0.13382982 0.018406987 0.072967984 0.13808186 0.020395342 0.13270196 0.17560181 -0.039714213 -0.046727967 -0.030710496 -0.03830628 -0.037773978 -0.086840264 0.1499985 0.005579534 0.08266039 0.05292348 -0.11653333 0.1457127 0.049695592 -0.054187205 -0.13742986 -0.13291349 -0.017808404 -0.109704904 0.04956138 -0.07984063 0.046951454 0.07869438 -0.055651836 0.09906459 -0.11215609 0.034881927 0.07020739 0.093421645 -0.046180252 -0.21641716 -0.0474792 -0.11270911 0.05144349 0.07173831 -0.14472301 0.04775265 -0.02372476 0.15547207 -0.079376824 0.12945984 0.034949124 -0.022511486 0.30300847 0.021607257 0.1646856 0.08227257 -0.082329005 0.055871803 -0.03400076 0.041661028 0.03461824 0.07475932 0.15712674 -0.060771592 0.12792452 -0.0721765 -0.08297898 -0.0012726225 0.027461965 0.06383439 -0.022185346 -0.02678399 0.108863324 0.111092 0.1343062 -0.13222216 0.20219372 0.27579498 -0.057889387 -0.07745301 -0.0401631 0.006064747 -0.007992768 0.024728324 0.0059786523 0.21646816 -0.011028467 -0.11842867 -0.069049396 0.089276046 -0.02686093 -0.08193608 0.07892961 0.15072505 0.043050412 0.047545224 -0.10077381 0.012834565 0.0016984562 -0.022420514 -0.09479351 -0.015862634 0.120374136 -0.002403038 -0.006918564 -0.065924875 0.05771776 0.02351089 -0.0022543112 -0.05469074 0.019528111 -0.15801433 -0.014833812 -0.08910304 0.07187515 -0.18298934 -0.05794581 0.11212046 0.03118365 -0.12322628 0.08330264 0.028213037 0.35869873 0.031418353 0.041409824 -0.053463116 -0.017735016 0.043947183 -0.11097583 0.013770144 -0.15946676 0.18587092 -0.004499599 -0.04181814 0.0048706676 -0.11025153 0.023127262 0.107923955
36 0.054616846 -0.027761592 -0.008005416 -0.0028188082 0.064204656 0.04911843 0.045330755 -0.09237845 0.16209318 0.005332138 0.16242748 0.12408834 0.033192948 0.001729295 0.0052154046 -0.0374739 0.029705046 -0.044922102 0.16316414 0.11159161 -0.013255995 0.1369218 0.07210059 0.03763434 -0.057270113 -0.057880826 0.059613343 -0.0798599 0.05496075 0.025658267 -0.027500361 0.05147991 -0.27485663 -0.12440504 -0.06990663 0.047976725 -0.166432 0.07379929 0.0788839 0.015841002 0.084708385 -0.19433273 -0.009523249 0.03274681 -0.07729236 0.044869903 -0.16732426 0.1309892 0.054345727 -0.031200267 0.06904826 -0.04932483 -0.011641663 -0.051949084 -0.0552793 0.007648164 -0.28692472 0.066341445 -0.031520516 0.19065756 0.040217265 -0.040577345 -0.3010304 0.089468904 0.062432177 -0.08470355 0.0068292837 0.012479706 -0.049199 -0.06451183 -0.0076778764 0.052382074 0.09222046 0.028830435 0.080038026 0.010026457 0.058327414 0.14912783 -0.06874384 0.11476229 -0.11094901 -0.22868142 -0.044741638 -0.02349287 -0.09261735 0.020069068 -0.097904935 0.0010285818 0.07435927 -0.07486019 -0.08260718 -0.22497544 0.10476797 0.06322554 0.10786426 -0.0007545276 -0.25074017 0.26050648 0.054861832 -0.05155571 0.03131331 0.062030956 0.048349325 0.016804313 0.19303426 -0.07526818 0.0577866 -0.054988254 -0.116208635 -0.054271214 0.17341946 -0.19794844 -0.07890969 0.15989855 0.013343106 -0.07741678 -0.009616473 0.07001937 0.17633556 0.03991037 0.050414994 0.13124947 0.020149576 0.07340254 0.13831934 0.023958974 0.13056885 0.17348556 -0.03944325 -0.046461154 -0.03153189 -0.039096884 -0.037443873 -0.08183364 0.14710455 0.004585444 0.08095448 0.05541754 -0.11538641 0.1416216 0.04804638 -0.0540338 -0.13627525 -0.13052636 -0.018176781 -0.107335486 0.04737724 -0.07650139 0.045097496 0.07696548 -0.0533332 0.09652682 -0.10975933 0.035082705 0.069148436 0.09532601 -0.04483954 -0.21447264 -0.046931315 -0.109478764 0.050278455 0.0702742 -0.14482887 0.046094935 -0.021137852 0.15233475 -0.07741321 0.128167 0.03476059 -0.022974566 0.29680333 0.023350982 0.1600327 0.08317057 -0.07964219 0.05725264 -0.034088697 0.041600954 0.033296153 0.06969822 0.1524691 -0.05959677 0.12418729 -0.07241682 -0.079674326 -0.0035126663 0.024541505 0.0588384 -0.02201707 -0.026762556 0.10692884 0.11144199 0.13138193 -0.12726097 0.19866428 0.26927346 -0.0557228 -0.076078705 -0.038955566 0.0049013286 -0.005968399 0.02474151 0.007265454 0.21504498 -0.0110410275 -0.11701629 -0.068977766 0.08869577 -0.027265783 -0.081391096 0.08087928 0.14774537 0.04090967 0.048399832 -0.095602185 0.015359194 0.00042702453 -0.022574073 -0.09232714 -0.012393889 0.12057545 -0.0005071311 -0.0040420624 -0.06447923 0.056716733 0.02540532 -0.0042390795 -0.056395296 0.018237079 -0.15472513 -0.014811715 -0.08865616 0.06931236 -0.1806033 -0.05676835 0.10791456 0.030612284 -0.120003074 0.078653246 0.026316559 0.351316 0.029836094 0.040141016 -0.051565908 -0.018512469 0.044538267 -0.11196375 0.016623462 -0.1544683 0.18379705 -0.0018358002 -0.041785836 0.003137032 -0.1085586 0.023471387 0.10558647
55 0.055775322 -0.031156432 -0.00947041 -0.0027891044 0.065802075 0.05088273 0.045929033 -0.09343978 0.16506119 0.004737465 0.1620352 0.12558006 0.030482663 0.0014057439 0.00646808 -0.039072614 0.03141818 -0.043798205 0.16511941 0.11368669 -0.010776904 0.13443257 0.070099294 0.04013229 -0.05616566 -0.056840163 0.05941647 -0.08056982 0.052642886 0.024867194 -0.026296806 0.05320849 -0.2757143 -0.12288648 -0.07170414 0.047425274 -0.16778536 0.07134215 0.0767666 0.014891161 0.08626313 -0.19439018 -0.011150703 0.033805765 -0.07811581 0.046038665 -0.1691732 0.1345726 0.055694837 -0.031648256 0.06861504 -0.04971561 -0.010784072 -0.05040753 -0.058158364 0.004439994 -0.28927195 0.06704112 -0.03342686 0.19338909 0.038521193 -0.038729347 -0.3037827 0.09052107 0.06315521 -0.08306129 0.0050897016 0.014016686 -0.04881223 -0.06704203 -0.0053532817 0.05105623 0.093013175 0.028190434 0.08013591 0.008934537 0.061392248 0.15048638 -0.07022086 0.1149844 -0.1120413 -0.22903068 -0.046775527 -0.026523972 -0.09348475 0.01848273 -0.09908551 0.0012306249 0.07195829 -0.075942054 -0.08018851 -0.22643383 0.10588116 0.06366828 0.11062142 0.00084885844 -0.2530654 0.2638411 0.055623077 -0.053170253 0.03107707 0.06316587 0.045897137 0.016777085 0.19238295 -0.077028506 0.056393184 -0.057312973 -0.117059305 -0.057354063 0.17715533 -0.2000378 -0.079443775 0.16208217 0.014829119 -0.07837816 -0.010991645 0.073518515 0.17694095 0.038146853 0.050746843 0.12981437 0.01824093 0.071200676 0.13903973 0.02223809 0.13189958 0.1727735 -0.038873386 -0.043717492 -0.03383899 -0.039288197 -0.035912808 -0.083511434 0.14523236 0.0023671058 0.0831928 0.05314084 -0.11500749 0.14065875 0.047392294 -0.05428594 -0.13689412 -0.12961626 -0.01611439 -0.1081616 0.047338866 -0.07776526 0.048366375 0.07526081 -0.054450627 0.098033324 -0.11224938 0.03533521 0.06930495 0.09342169 -0.045533855 -0.21407393 -0.046126306 -0.111828186 0.054319527 0.07047757 -0.14561489 0.04922339 -0.022867879 0.15093666 -0.07701212 0.12880187 0.03592253 -0.022279054 0.2998646 0.024149971 0.16228761 0.08347963 -0.078536265 0.057008646 -0.03344336 0.041972913 0.031085031 0.072216384 0.15442067 -0.060038824 0.12752616 -0.07211386 -0.082629986 -0.0026999558 0.02460238 0.059408467 -0.022627424 -0.024420252 0.10786713 0.11111202 0.13034062 -0.12763523 0.19922088 0.26999667 -0.05560429 -0.07783674 -0.040706385 0.002876476 -0.007446352 0.02549758 0.006701903 0.21340965 -0.010232802 -0.11752166 -0.06851399 0.089223064 -0.026455121 -0.08163126 0.08066814 0.14635432 0.041132614 0.04769128 -0.09779372 0.014273781 -0.0004030468 -0.020024026 -0.09090172 -0.01364787 0.12124158 -0.0035266432 -0.0059970245 -0.06493015 0.0582442 0.023895519 -0.0038662725 -0.05749413 0.01605223 -0.15564896 -0.01339708 -0.09005704 0.06951654 -0.18377596 -0.056896575 0.112462886 0.031728975 -0.1198978 0.08168473 0.02418215 0.35463208 0.03129721 0.042411607 -0.05245156 -0.016603282 0.042380504 -0.111808315 0.016426114 -0.15613374 0.18417148 -0.0047971485 -0.042473633 0.0012471193 -0.109405704 0.02373371 0.105672605
5 0.054665208 -0.029935515 -0.008965741 -0.005169821 0.06730944 0.048689395 0.045216624 -0.093418054 0.16880913 0.0055946135 0.16358188 0.12700365 0.033370014 0.0011323577 0.00641349 -0.03980964 0.032194007 -0.045804773 0.16664343 0.115602374 -0.013558957 0.13994093 0.07525829 0.03885902 -0.056611136 -0.059982732 0.060487993 -0.082075894 0.0531877 0.029058967 -0.026347244 0.054209366 -0.28283575 -0.12462894 -0.071669154 0.04918352 -0.16943191 0.07284915 0.08083502 0.018051276 0.0866932 -0.19599172 -0.0116497185 0.035631463 -0.077969745 0.048354674 -0.17317006 0.13370761 0.055968367 -0.03131581 0.06974359 -0.048332386 -0.009379657 -0.04940072 -0.055710565 0.0067549567 -0.2931607 0.06784759 -0.033611476 0.19750498 0.041005827 -0.039611503 -0.31004936 0.091820665 0.06555322 -0.08657145 0.0068028555 0.014272807 -0.050522283 -0.06677301 -0.004110353 0.05189803 0.094462544 0.031056548 0.08060759 0.008876447 0.058417648 0.1504844 -0.07055121 0.118818596 -0.1126792 -0.23266499 -0.048572928 -0.026132135 -0.09795002 0.019572306 -0.101172596 0.0023931207 0.07476633 -0.076965824 -0.0839878 -0.22775969 0.10890575 0.06453842 0.1122062 -0.0016842842 -0.25699887 0.26845565 0.05508825 -0.051673755 0.031369597 0.06282882 0.045743223 0.019073294 0.19572206 -0.07553173 0.059550736 -0.058630884 -0.116499566 -0.05698185 0.17678042 -0.20167409 -0.081323996 0.16336358 0.013549468 -0.077541776 -0.00878428 0.07173347 0.17977011 0.041357 0.054062765 0.13203475 0.020323595 0.07439658 0.14012244 0.021235816 0.13227929 0.17580768 -0.037842426 -0.045271624 -0.031170353 -0.039767716 -0.03857495 -0.08648079 0.14703275 0.0038124677 0.08255757 0.053880464 -0.114884354 0.14353909 0.04860719 -0.05564283 -0.13961162 -0.13402781 -0.016753923 -0.11028146 0.05001344 -0.07787808 0.04816822 0.07615341 -0.054502424 0.09764759 -0.11326479 0.03673088 0.07079049 0.09630213 -0.046620272 -0.2173381 -0.04548741 -0.11322624 0.05229493 0.07231821 -0.14755346 0.047193497 -0.021704167 0.15377615 -0.07985024 0.1301923 0.034647245 -0.021902353 0.30617753 0.023397023 0.1620431 0.08505276 -0.08055237 0.05857977 -0.035802323 0.043252815 0.032311544 0.072130464 0.15874945 -0.05880162 0.12902477 -0.07463111 -0.08125876 -0.0027271109 0.024050176 0.06110652 -0.022571126 -0.026036782 0.10980251 0.11417601 0.13309684 -0.13275844 0.20338963 0.2762357 -0.0576517 -0.07890622 -0.04096787 0.0051685143 -0.008421123 0.023702519 0.009160528 0.21685015 -0.010749302 -0.118449815 -0.06883598 0.08990811 -0.02867581 -0.08314637 0.0790977 0.14932838 0.041786555 0.04646368 -0.10075155 0.015892522 -5.4835466e-05 -0.022282274 -0.09346011 -0.013758764 0.12301128 -0.002248573 -0.005337692 -0.06666755 0.05863964 0.023666006 -0.0038814903 -0.05539824 0.017237095 -0.15845163 -0.012074394 -0.08924876 0.0722474 -0.18362255 -0.05712973 0.10996112 0.02932561 -0.11996662 0.08063787 0.025274405 0.35969925 0.030068193 0.041524757 -0.05053754 -0.01915333 0.04447969 -0.1139997 0.017005742 -0.15921189 0.18498561 -0.004316632 -0.04134049 0.0016525517 -0.11292143 0.024821624 0.105447784
14 0.05510986 -0.030274052 -0.009625467 -0.0032843787 0.067062415 0.050367594 0.045788843 -0.0925345 0.16578093 0.004815685 0.16573471 0.12653632 0.030297654 0.0027793646 0.0044332333 -0.039732717 0.031786177 -0.04485322 0.16746207 0.11307399 -0.012890841 0.13902187 0.07334 0.03786 -0.05902286 -0.056526035 0.059572946 -0.08109849 0.054053314 0.028410878 -0.026147082 0.052682694 -0.28240165 -0.1236892 -0.07226834 0.04755912 -0.16911398 0.0748757 0.079625115 0.015624295 0.08471726 -0.1986187 -0.011601857 0.035768285 -0.0779415 0.047822267 -0.17296232 0.13633877 0.056204394 -0.03124647 0.07107142 -0.049567267 -0.008918903 -0.049836826 -0.055864673 0.0050944146 -0.29360375 0.06725233 -0.03379392 0.19471355 0.040092126 -0.041235343 -0.30719757 0.09522273 0.065254904 -0.08377534 0.005224471 0.014380174 -0.04885699 -0.066004746 -0.0049668266 0.0541485 0.09285065 0.028990174 0.080591805 0.007702978 0.059339438 0.1535486 -0.072572894 0.11521977 -0.11130652 -0.23345505 -0.04735746 -0.024819639 -0.097201824 0.02078283 -0.098233074 0.0035132929 0.076670766 -0.0760358 -0.082182266 -0.2276511 0.10739165 0.06391974 0.10845415 -0.0007212026 -0.2567543 0.2673243 0.056805093 -0.050595995 0.032802984 0.062764876 0.04670785 0.019767812 0.1977531 -0.07587272 0.056907047 -0.058941975 -0.11950673 -0.05520438 0.17616412 -0.20274815 -0.07977123 0.1624876 0.015547378 -0.07726098 -0.0090120435 0.07225916 0.18039732 0.04057013 0.053866994 0.13366726 0.017617747 0.07654976 0.14063953 0.021889318 0.13389856 0.1764684 -0.03961123 -0.046797615 -0.033866797 -0.038631815 -0.036110163 -0.08565567 0.14819856 0.0036518946 0.084506705 0.05561029 -0.11430416 0.1439086 0.051068284 -0.056212295 -0.13889416 -0.1307506 -0.01622768 -0.11120258 0.047499064 -0.07754869 0.04937759 0.078819275 -0.055482544 0.10036039 -0.11229635 0.033993594 0.06986414 0.09516334 -0.046656385 -0.2178962 -0.046559248 -0.11244167 0.05422731 0.072334126 -0.14574 0.046721667 -0.02206677 0.1529603 -0.07861008 0.13350087 0.0358508 -0.021992316 0.30622795 0.024356812 0.16296025 0.08283166 -0.08266 0.057045527 -0.03704589 0.04417463 0.03300089 0.0727806 0.15775615 -0.060731288 0.12700023 -0.0722292 -0.08179829 -0.0025108717 0.024639243 0.06283997 -0.022024151 -0.026327834 0.10961404 0.11422537 0.13464022 -0.13196267 0.19983482 0.27753478 -0.05552248 -0.078054875 -0.040440015 0.0041356543 -0.0074020894 0.023650749 0.009081843 0.21792796 -0.0129556 -0.11812806 -0.06674745 0.09088417 -0.026540684 -0.08505835 0.08163659 0.15011601 0.043155577 0.048842777 -0.09779753 0.014154063 0.0027902438 -0.021041583 -0.09393388 -0.013914709 0.121366754 -0.00048209343 -0.006496245 -0.065039404 0.056979448 0.024997013 -0.004312291 -0.056792527 0.018203141 -0.16063268 -0.015087517 -0.09275662 0.071261145 -0.1863879 -0.057649486 0.11285046 0.032688837 -0.12035307 0.0835117 0.026765572 0.35697877 0.032000788 0.041473787 -0.051455773 -0.01899011 0.042008005 -0.1134609 0.01520628 -0.1593846 0.18605797 -0.0015318197 -0.0426797 0.005266559 -0.10993029 0.023590144 0.10636931
28 0.057074115 -0.029491711 -0.0075661107 -0.0042301184 0.066307016 0.04815996 0.04481214 -0.09206921 0.16832772 0.007287851 0.16138035 0.12449342 0.03083355 0.0018375685 0.007083129 -0.03770829 0.03133349 -0.041808207 0.16474828 0.112825975 -0.010650669 0.13671239 0.07365656 0.040081322 -0.05616487 -0.05991063 0.061939843 -0.08180474 0.05447326 0.026806647 -0.02785124 0.055022933 -0.27703637 -0.12697363 -0.07239609 0.04964324 -0.16693978 0.07394442 0.07975803 0.016635422 0.0839447 -0.19737457 -0.011958264 0.0333423 -0.07663294 0.046977337 -0.16959903 0.13310952 0.056341246 -0.029150955 0.067067854 -0.047285926 -0.012195419 -0.05052458 -0.05625403 0.0054362826 -0.2929462 0.06583755 -0.030299686 0.1971294 0.04098923 -0.039729595 -0.30656606 0.090772085 0.065792926 -0.08285696 0.0034132346 0.012144793 -0.051634323 -0.06556138 -0.0050421534 0.05368492 0.09268923 0.028734919 0.08302337 0.010414849 0.061466552 0.15114515 -0.070248686 0.118529044 -0.11002174 -0.23134686 -0.048033044 -0.023927912 -0.09715 0.017813707 -0.09960604 0.003016618 0.07406429 -0.07513854 -0.08051919 -0.22670904 0.10914244 0.063237764 0.10830949 -0.0005961995 -0.2541654 0.26682344 0.05432915 -0.050523054 0.034200888 0.06274844 0.048196934 0.017736549 0.19405524 -0.074689776 0.057769448 -0.058925685 -0.11595399 -0.05704244 0.17852832 -0.200281 -0.07937527 0.16405468 0.016033057 -0.07764933 -0.010232712 0.071818165 0.17710653 0.03739558 0.053403456 0.13359602 0.02099698 0.07336436 0.1368538 0.020817079 0.13032375 0.17499922 -0.037965234 -0.046951752 -0.03084813 -0.038670138 -0.0355773 -0.08321908 0.14795528 0.0034957908 0.082674325 0.053008687 -0.1151461 0.14250106 0.048814204 -0.05572003 -0.13781008 -0.13309954 -0.01728468 -0.111763924 0.049429003 -0.076324716 0.048289042 0.07698587 -0.054547414 0.09762336 -0.1120348 0.036241032 0.06823373 0.095788375 -0.04576239 -0.21588667 -0.046981014 -0.112022765 0.05347666 0.070082486 -0.1453903 0.04642455 -0.022080202 0.1545257 -0.07916175 0.13128616 0.03329597 -0.024059035 0.30325755 0.02330289 0.16315012 0.08274383 -0.079962425 0.057173114 -0.037047233 0.04336556 0.034434997 0.07308638 0.15640712 -0.059065733 0.12764347 -0.07419138 -0.08315815 -0.0018144799 0.027357686 0.06197376 -0.01959507 -0.027180802 0.109966494 0.10969741 0.13277443 -0.12827489 0.20086755 0.2754746 -0.058091663 -0.07803195 -0.041513365 0.005931909 -0.0085975155 0.027214369 0.008975286 0.2169519 -0.013382174 -0.11841522 -0.0695083 0.09039676 -0.027829714 -0.083361305 0.07912804 0.14951646 0.03962667 0.048093908 -0.09955258 0.015589489 0.0011601255 -0.020745786 -0.09250254 -0.011927112 0.12255889 -0.0035137625 -0.0044100704 -0.063557 0.056465577 0.02570941 -0.0040690107 -0.055958416 0.016366785 -0.15796268 -0.011536947 -0.090040445 0.07176173 -0.18267432 -0.05592358 0.112556495 0.029459128 -0.12116823 0.083351836 0.027691422 0.35672325 0.029173365 0.041592702 -0.05115294 -0.018012047 0.04393069 -0.11063021 0.014227254 -0.15628819 0.18505952 -0.004880647 -0.041842233 0.003473434 -0.11227179 0.021698078 0.10759143
22 0.054836284 -0.032575835 -0.008337936 -0.00481573 0.0652552 0.049309783 0.04643692 -0.09462364 0.16909888 0.0066409 0.16503437 0.12745896 0.032920163 0.0027882825 0.0061302423 -0.041195612 0.031812117 -0.045736216 0.16664581 0.116298504 -0.012262392 0.13871025 0.07484701 0.04079457 -0.059514254 -0.058732312 0.062643945 -0.08478451 0.055039015 0.02716353 -0.026242988 0.055400528 -0.28210914 -0.12745546 -0.07196115 0.047489464 -0.17010975 0.07578438 0.08089628 0.015750509 0.088252164 -0.19836995 -0.01199208 0.03665287 -0.07952003 0.049181223 -0.17255798 0.13716483 0.05328349 -0.031936325 0.07088302 -0.049384482 -0.009004797 -0.05328434 -0.05983174 0.006238864 -0.2961579 0.06616182 -0.033656567 0.19881165 0.041173637 -0.0396877 -0.310601 0.09343795 0.06447652 -0.08648754 0.00594508 0.014159946 -0.051825147 -0.06670339 -0.0059684296 0.05535779 0.09659089 0.030445978 0.08278326 0.009488722 0.06248867 0.15406153 -0.07197247 0.11965602 -0.114082314 -0.2363609 -0.04678676 -0.0268333 -0.097911924 0.020871935 -0.09949646 0.001591723 0.07464446 -0.07705593 -0.08240897 -0.23240574 0.1110328 0.06238001 0.11069501 -0.0011041028 -0.2555385 0.2686972 0.058661763 -0.052831452 0.03366625 0.06308525 0.04913668 0.017130477 0.1995983 -0.07751353 0.05759611 -0.057646293 -0.1195 -0.057827957 0.18059784 -0.20578267 -0.08131231 0.16368817 0.014430871 -0.078081496 -0.008240581 0.075535454 0.17928118 0.039465845 0.054783363 0.1325148 0.019614734 0.0763784 0.14146912 0.021962697 0.13178694 0.17782299 -0.040661816 -0.045646805 -0.03352558 -0.039249524 -0.03601982 -0.08639544 0.14910038 0.0054426105 0.08337453 0.05680116 -0.11847658 0.14385937 0.04941974 -0.053327918 -0.13918248 -0.13298096 -0.016980415 -0.10982582 0.04674085 -0.078909464 0.0482774 0.07928374 -0.054816436 0.1000822 -0.1124173 0.03594464 0.06822972 0.096248575 -0.046089806 -0.22105594 -0.048498314 -0.11591124 0.053584877 0.07363731 -0.14724304 0.048522323 -0.022601867 0.15479034 -0.08091878 0.13071637 0.037226662 -0.021444721 0.3083094 0.02413593 0.16585302 0.08514499 -0.07977626 0.057958093 -0.033782233 0.042775903 0.03384281 0.07336493 0.15656775 -0.059781987 0.1282228 -0.07332745 -0.084846 -0.00458711 0.027889006 0.06400844 -0.01961429 -0.026205946 0.1133086 0.11387633 0.13283333 -0.13109659 0.20417799 0.27819294 -0.055503294 -0.078459755 -0.039703183 0.0048879646 -0.006506678 0.025338624 0.0067035654 0.22146715 -0.012666154 -0.1195981 -0.07004086 0.09033376 -0.026944494 -0.08465528 0.08094233 0.15029041 0.042072915 0.04729612 -0.09935388 0.013063494 0.0013784072 -0.02139179 -0.093799494 -0.0138430735 0.12444011 -0.002240609 -0.007897032 -0.064975284 0.05767137 0.023777872 -0.0015026926 -0.056178402 0.017617563 -0.1584664 -0.015181057 -0.09038059 0.07442109 -0.18447293 -0.058082003 0.11176294 0.029805979 -0.121865764 0.08270942 0.028128294 0.36299896 0.031059623 0.042869106 -0.05348878 -0.017149061 0.04576551 -0.11588997 0.013190964 -0.15854788 0.18886627 -0.002830687 -0.041906323 0.0016292391 -0.1142401 0.024364762 0.109410815
57 0.055847056 -0.02998455 -0.008400275 -0.0041966103 0.06535527 0.050013706 0.04618061 -0.09175174 0.16363142 0.005315797 0.16411476 0.125085 0.031776026 0.0034291714 0.003974341 -0.039934807 0.03160386 -0.044928048 0.16676573 0.11479829 -0.011427701 0.1382705 0.07179012 0.03893867 -0.05619377 -0.058119904 0.059343018 -0.08410969 0.054689262 0.027964296 -0.028410777 0.05477836 -0.27886438 -0.12485681 -0.07237603 0.04675989 -0.16739799 0.073226474 0.07747231 0.014879858 0.08543668 -0.19592148 -0.011814299 0.036996417 -0.07645524 0.047430564 -0.1695173 0.13259232 0.05448008 -0.030228248 0.069787845 -0.051145393 -0.010009701 -0.051347286 -0.058047865 0.0076528876 -0.29091424 0.06836318 -0.033642866 0.19529285 0.037448034 -0.03956466 -0.304885 0.0944615 0.066487715 -0.08305445 0.005111737 0.013530405 -0.04810841 -0.065705664 -0.005038721 0.05277136 0.09416588 0.029991588 0.079765856 0.008247565 0.06056014 0.14883302 -0.07120268 0.11490599 -0.11238664 -0.23293613 -0.044832986 -0.025822515 -0.09380459 0.019343285 -0.09767794 0.003092623 0.07407825 -0.07485508 -0.07967323 -0.22494152 0.10724476 0.06514899 0.10779529 0.0004425173 -0.2537157 0.26673856 0.056084912 -0.050703403 0.033935964 0.06308123 0.048632875 0.017209563 0.19433154 -0.07492326 0.05521197 -0.05931738 -0.11701581 -0.055629987 0.17659746 -0.19960508 -0.07774571 0.16265278 0.013270766 -0.07910546 -0.009811796 0.07229878 0.17786928 0.040749937 0.05166379 0.13322252 0.017140621 0.075715885 0.14013752 0.024491232 0.13278599 0.17342593 -0.039700963 -0.044227704 -0.032526843 -0.040799674 -0.03599523 -0.08542154 0.14705488 0.0021742205 0.082691126 0.057231087 -0.11480617 0.1426476 0.048599653 -0.054659013 -0.13492464 -0.129732 -0.017819526 -0.10943536 0.049814742 -0.079651915 0.049046956 0.07631078 -0.053472828 0.096914634 -0.112751655 0.03672723 0.066392206 0.0942303 -0.046911936 -0.21863866 -0.04377753 -0.11447546 0.05455275 0.072759725 -0.14724611 0.048961647 -0.023655262 0.15378737 -0.07582417 0.13111977 0.033785805 -0.021347396 0.30171463 0.02237835 0.16033195 0.08199343 -0.08239856 0.05899603 -0.0370918 0.041300137 0.030864464 0.0716299 0.15779273 -0.06043314 0.12680395 -0.07522472 -0.08014342 -0.0017025023 0.02389325 0.059799057 -0.020947793 -0.02404057 0.11174824 0.11332339 0.13336653 -0.13180596 0.2004187 0.27440768 -0.05641543 -0.075645074 -0.038756415 0.004726397 -0.0076745464 0.02317824 0.006865933 0.21818824 -0.012368783 -0.117439106 -0.06731282 0.088030696 -0.029315814 -0.08185278 0.0810309 0.15051799 0.04084897 0.04725027 -0.096684635 0.012909833 -0.00063938415 -0.022079017 -0.0940367 -0.014690471 0.12373849 -0.0014098369 -0.0052938275 -0.0649565 0.05942461 0.025546283 -0.0051526795 -0.05798601 0.018592833 -0.15717371 -0.014500077 -0.08858653 0.069155656 -0.18138997 -0.055026036 0.11302871 0.031121988 -0.1189366 0.08144096 0.0260724 0.35719642 0.029354177 0.039958578 -0.05181432 -0.017722594 0.04193648 -0.11177446 0.013533953 -0.15766789 0.18455707 -0.0022296677 -0.042821337 0.0034386835 -0.10934435 0.020953434 0.10559155
81 0.054680187 -0.031690653 -0.00904994 -0.003625067 0.066574715 0.049766384 0.045791864 -0.09477298 0.1693981 0.0056179157 0.16414152 0.12769891 0.033805504 0.00011532835 0.0062097423 -0.038280834 0.029381169 -0.042770024 0.16623174 0.115106605 -0.014514226 0.13930842 0.07497553 0.03936815 -0.0582763 -0.060120434 0.063263364 -0.08340228 0.0568019 0.027430132 -0.027691849 0.05419794 -0.2835308 -0.12772824 -0.07369314 0.050860498 -0.16811797 0.07387651 0.08109647 0.017193593 0.08634887 -0.20011808 -0.010451329 0.034454238 -0.078382716 0.04838793 -0.17339443 0.13773516 0.055132 -0.029906794 0.06881002 -0.049375918 -0.010715759 -0.050759863 -0.058810577 0.0061260154 -0.29774284 0.06650694 -0.030870268 0.19990201 0.04059213 -0.038060144 -0.3127713 0.09624657 0.06685848 -0.08550902 0.005326317 0.012975674 -0.05279806 -0.06876966 -0.006340433 0.05168878 0.09456748 0.031464428 0.083853774 0.009165122 0.061081212 0.1551708 -0.07134821 0.11850962 -0.11348626 -0.23544465 -0.049123928 -0.026649443 -0.0968662 0.018167185 -0.10200463 0.0038394427 0.074490905 -0.07751986 -0.08266176 -0.22970712 0.108625494 0.065943815 0.10980486 0.0013114153 -0.25768244 0.27203426 0.05769765 -0.051183857 0.034117732 0.06454483 0.047817647 0.019496191 0.19968675 -0.07553109 0.059389725 -0.05724019 -0.12050563 -0.057147697 0.18032874 -0.2068158 -0.07997122 0.16431355 0.014629983 -0.07802769 -0.009355902 0.0723306 0.17813054 0.041250505 0.054923136 0.13372739 0.021189092 0.07444374 0.14195518 0.02230508 0.13511914 0.1761936 -0.03714372 -0.045447838 -0.031515498 -0.038610186 -0.03680179 -0.08378299 0.14901984 0.005135359 0.0856654 0.05720577 -0.11555298 0.14628154 0.049058884 -0.055542637 -0.13744986 -0.13483885 -0.01631261 -0.1131602 0.049745277 -0.07797709 0.04793619 0.08040357 -0.053290904 0.100569025 -0.111533895 0.037609726 0.068470076 0.096250504 -0.046351165 -0.22185448 -0.04506648 -0.11412327 0.053786475 0.07295832 -0.14782971 0.04892266 -0.023133684 0.15464339 -0.07885972 0.13430962 0.035340235 -0.024562059 0.30785295 0.024243493 0.16591741 0.08523313 -0.08321769 0.05809819 -0.034817796 0.042575426 0.034903746 0.07520844 0.15924853 -0.059704315 0.13091332 -0.07231052 -0.082719505 -0.0029587215 0.025175903 0.06279155 -0.02147699 -0.024975562 0.1133361 0.11353797 0.13481142 -0.13158947 0.20542431 0.2779188 -0.05515501 -0.077768825 -0.042369016 0.00578365 -0.008882305 0.026228724 0.0096533755 0.2215727 -0.013189985 -0.11809134 -0.068912975 0.0921554 -0.027354207 -0.08262537 0.08077069 0.15114199 0.04444791 0.046511658 -0.100191474 0.013109765 0.0027212275 -0.02153579 -0.093087845 -0.013496507 0.12251033 -0.0033871627 -0.007806792 -0.06717041 0.057272196 0.02327944 -0.0030585693 -0.05774747 0.017493566 -0.16101068 -0.012187338 -0.093467705 0.07211164 -0.18629919 -0.05740601 0.113689765 0.030391509 -0.12339446 0.08411902 0.025959536 0.36326876 0.031391166 0.03989158 -0.052222457 -0.016596325 0.04529335 -0.115208514 0.013907794 -0.15884848 0.18767902 -0.002052923 -0.04208014 0.0046194526 -0.11161057 0.024947753 0.106397726
92 0.055101097 -0.030968424 -0.010445741 -0.0035583996 0.06614903 0.04874947 0.046608735 -0.09401492 0.16594414 0.007792872 0.16675536 0.12423567 0.032728948 5.320073e-05 0.0044232123 -0.039243795 0.031745333 -0.045344945 0.1659218 0.11661261 -0.012744378 0.13850532 0.07316062 0.04086038 -0.055757746 -0.06001204 0.06072421 -0.083453655 0.055632006 0.028349087 -0.028408373 0.055897832 -0.28225428 -0.1245026 -0.07171238 0.04810215 -0.16930568 0.075664714 0.07933956 0.016978279 0.08636922 -0.199499 -0.009775782 0.035145253 -0.07928525 0.046625536 -0.17383048 0.13400021 0.053972565 -0.030881217 0.06936845 -0.047260955 -0.008796303 -0.049895797 -0.056587275 0.0048579792 -0.29359278 0.06819871 -0.031204186 0.19755657 0.037752025 -0.040693466 -0.31124446 0.095314786 0.06585217 -0.08612142 0.0058454517 0.014277352 -0.050342172 -0.065888666 -0.0056680473 0.05457563 0.096099995 0.027823603 0.082501255 0.010067965 0.06263943 0.15241711 -0.07349961 0.11913496 -0.114523165 -0.2319201 -0.048836734 -0.023414984 -0.0953799 0.017397659 -0.101486824 0.0026739216 0.075647384 -0.07694722 -0.08408923 -0.23163997 0.108808376 0.06471902 0.111111686 -0.0011479183 -0.2555154 0.26877806 0.05775986 -0.053965308 0.03305989 0.06278937 0.049225934 0.01964038 0.19781744 -0.07702731 0.055877242 -0.05612145 -0.11900292 -0.056232866 0.179478 -0.20370045 -0.08142599 0.16544035 0.016860029 -0.08060429 -0.007985378 0.07134136 0.17803551 0.040758606 0.053650916 0.13273348 0.018871952 0.07390361 0.14257602 0.021196323 0.13470909 0.17635062 -0.03805606 -0.04551582 -0.03306133 -0.039631903 -0.03872943 -0.08622098 0.14984606 0.00442343 0.082503125 0.057864908 -0.11724048 0.14714573 0.04938038 -0.054949842 -0.13603278 -0.13328086 -0.014683847 -0.11276625 0.050003413 -0.07936041 0.047473937 0.077719286 -0.05464915 0.09829917 -0.11294866 0.03579884 0.0696487 0.09694537 -0.049036536 -0.22034486 -0.047338523 -0.11337709 0.05393119 0.073190846 -0.14894429 0.047035534 -0.021953154 0.15579884 -0.07687694 0.13163981 0.03418084 -0.024034236 0.30492684 0.023547031 0.16477717 0.08458132 -0.08219302 0.059498675 -0.034013968 0.044527996 0.031485677 0.074348696 0.15953588 -0.06223315 0.12826324 -0.07255142 -0.0825486 -0.0016832825 0.026606517 0.06408426 -0.021746952 -0.025171949 0.11010441 0.1149146 0.13495032 -0.13116021 0.20160325 0.2781593 -0.05741605 -0.07728185 -0.040905766 0.0036622474 -0.0070503615 0.025279244 0.0055707493 0.21993117 -0.012374346 -0.11702545 -0.07091627 0.08892804 -0.02920726 -0.082378596 0.08281993 0.14943868 0.043159176 0.047222156 -0.10004138 0.014053349 0.0020919081 -0.022421246 -0.092937365 -0.015593057 0.124745935 -0.0034745473 -0.0069152988 -0.0649322 0.05903928 0.026375508 -0.0036569997 -0.056230146 0.018603096 -0.15916793 -0.0148427375 -0.09256457 0.070764326 -0.1867032 -0.056085877 0.11286363 0.029350325 -0.12417417 0.08098703 0.027013695 0.36124644 0.031462036 0.039570846 -0.051282357 -0.01589442 0.045545146 -0.115201615 0.014353333 -0.16036694 0.18716583 -0.0039931624 -0.04277924 0.0026141952 -0.11226192 0.022315875 0.10929547
91 0.055703335 -0.02914537 -0.00773689 -0.0044030272 0.06582815 0.048475653 0.04574502 -0.093595535 0.1649225 0.006564953 0.16379373 0.1251778 0.03379904 0.0022164632 0.006014939 -0.039684698 0.029016085 -0.041876044 0.16581629 0.11523387 -0.010114369 0.1371401 0.07421911 0.03964832 -0.055043858 -0.05985216 0.06138991 -0.08168336 0.05438249 0.028057741 -0.028387742 0.053375226 -0.2790896 -0.12417811 -0.07372827 0.047724877 -0.16715856 0.07473608 0.08117342 0.015848162 0.08499482 -0.19589357 -0.010600559 0.03614353 -0.07780184 0.048812367 -0.17117989 0.1345413 0.053768855 -0.032212667 0.06934166 -0.04793895 -0.010878481 -0.049606852 -0.056987885 0.007523878 -0.29253873 0.065158255 -0.032379117 0.19349672 0.040374916 -0.04057202 -0.3050249 0.09136057 0.062721364 -0.082598366 0.006592035 0.015643114 -0.0494713 -0.06621188 -0.0070536006 0.05195852 0.09423418 0.030502852 0.08111925 0.010971132 0.059110098 0.15122911 -0.07154674 0.11515684 -0.11245097 -0.23265563 -0.048512228 -0.025386853 -0.09431637 0.020020314 -0.1006847 0.0019213273 0.07592166 -0.077967025 -0.0810625 -0.22660951 0.10647344 0.06374854 0.11251286 -0.0017860963 -0.25282115 0.26747748 0.0541509 -0.053391 0.030294172 0.06305785 0.0455777 0.01894344 0.19485052 -0.07652438 0.05539352 -0.058703866 -0.118768245 -0.05467173 0.17634013 -0.20319751 -0.0801985 0.16060802 0.014180886 -0.07984736 -0.008564041 0.07375409 0.1788592 0.03982667 0.05068875 0.13025744 0.019265678 0.073915966 0.13897413 0.020746898 0.13266581 0.17516586 -0.038450178 -0.046874516 -0.030865192 -0.039924394 -0.03486932 -0.08415433 0.14930102 0.0058245948 0.08507674 0.055882476 -0.11534416 0.14267443 0.049724407 -0.052032825 -0.13759662 -0.13107143 -0.015024346 -0.11171275 0.050223816 -0.07959783 0.048212983 0.07767782 -0.05378076 0.099629804 -0.11330523 0.034817293 0.06734376 0.09560917 -0.047632743 -0.21631761 -0.0465481 -0.11252236 0.052246645 0.071482 -0.14680593 0.049642995 -0.023774303 0.15482561 -0.078827925 0.13122107 0.035448104 -0.02112973 0.30107614 0.020674674 0.16316392 0.083850496 -0.080413565 0.057971153 -0.035680052 0.04130686 0.034172285 0.070870236 0.15588163 -0.06187741 0.12984805 -0.07301918 -0.08040701 -0.0019637335 0.027193762 0.06116472 -0.020487284 -0.025663506 0.11108195 0.112546496 0.13397303 -0.12918282 0.20184444 0.2753499 -0.05752008 -0.0766494 -0.042162556 0.0062489607 -0.008506915 0.024010317 0.007358768 0.21510734 -0.010802244 -0.11591603 -0.06768144 0.09012637 -0.026764898 -0.08485295 0.0793333 0.15136443 0.04055211 0.04931486 -0.09686215 0.01436092 -0.00075190794 -0.019983336 -0.09424204 -0.015884973 0.120641604 -0.0039418475 -0.0068021803 -0.06638262 0.05676929 0.023256687 -0.0029675856 -0.05705962 0.01822473 -0.15830624 -0.013478568 -0.08866218 0.07092793 -0.18421054 -0.05620039 0.11043935 0.029817397 -0.120441 0.08177689 0.024056295 0.3587145 0.028391287 0.042616952 -0.052663326 -0.016483601 0.045720156 -0.11322553 0.014507643 -0.15926144 0.1849223 -0.0026472833 -0.041934438 0.0038154996 -0.11264149 0.021884046 0.10840193
85 0.056307428 -0.03147135 -0.007948005 -0.004622588 0.06487035 0.049057055 0.045246825 -0.0948365 0.16440758 0.006282677 0.16369334 0.12503715 0.030870099 0.0004420311 0.007042593 -0.03898861 0.029442064 -0.044055812 0.16658777 0.11485341 -0.01205511 0.13660635 0.07405866 0.03935112 -0.05659073 -0.05725219 0.059028797 -0.08202672 0.05593108 0.027387628 -0.029384337 0.052774854 -0.27996147 -0.12340876 -0.07138542 0.046356536 -0.16624245 0.07396738 0.08019637 0.017328171 0.087024294 -0.19770657 -0.010422603 0.034832157 -0.07876499 0.0479418 -0.16988163 0.13489173 0.052518234 -0.030353906 0.06761645 -0.048593678 -0.011476292 -0.05090086 -0.057315677 0.008098059 -0.29236653 0.06831588 -0.033287905 0.19550797 0.038977414 -0.040594216 -0.30798927 0.091603346 0.06357453 -0.08593045 0.0040760627 0.014438529 -0.050630674 -0.067002654 -0.00543095 0.052292563 0.095005 0.030206094 0.081713244 0.0075304527 0.060501978 0.15025651 -0.06959 0.11546891 -0.111886255 -0.23245588 -0.045608714 -0.025998002 -0.09387431 0.017990706 -0.09882578 0.0044446946 0.075395726 -0.076397344 -0.08241329 -0.22565019 0.10843683 0.06414278 0.10870629 -0.0002893538 -0.2519086 0.26651528 0.056406662 -0.05329693 0.031600144 0.060464703 0.04536234 0.018346844 0.19455698 -0.07727926 0.056249283 -0.058503184 -0.114960425 -0.057218004 0.17721355 -0.20199136 -0.08093331 0.16304073 0.016833832 -0.078109205 -0.011520861 0.072042584 0.17865193 0.038775805 0.052216433 0.13361013 0.017070865 0.072811656 0.14059761 0.021550104 0.13217068 0.17386216 -0.03830239 -0.04731144 -0.03359864 -0.039759308 -0.035876505 -0.08280295 0.14771833 0.002462737 0.08104341 0.05535367 -0.11510825 0.14231338 0.049096584 -0.05368042 -0.13666622 -0.13131414 -0.016552715 -0.11122021 0.049890008 -0.07827285 0.046646178 0.07660104 -0.055343565 0.09682512 -0.11192893 0.035298984 0.069201626 0.096120074 -0.04849088 -0.21449332 -0.047307942 -0.11203961 0.05385643 0.07169141 -0.14588323 0.046926986 -0.021455064 0.15396261 -0.077889584 0.13281102 0.036800258 -0.020596959 0.30257 0.021935597 0.1621101 0.082886435 -0.08111924 0.058002908 -0.03545698 0.04364377 0.033138484 0.073210746 0.15693484 -0.059740406 0.12794808 -0.07358414 -0.07984074 -0.004410019 0.027024964 0.06326778 -0.021075262 -0.027377974 0.11162122 0.11343337 0.13054764 -0.13137907 0.19998881 0.27508232 -0.057900563 -0.07725456 -0.04152041 0.0057610273 -0.0076744827 0.025611412 0.007273245 0.21635321 -0.011313188 -0.11533976 -0.06661788 0.090251476 -0.02932271 -0.082424164 0.080946706 0.14899644 0.041103303 0.04584172 -0.097336486 0.0129361255 0.0029960817 -0.023504755 -0.093770176 -0.015177602 0.12134282 -0.003258281 -0.0037324221 -0.066321276 0.05690913 0.022828588 -0.0019705568 -0.055865012 0.016818842 -0.15904853 -0.014245496 -0.089821994 0.072914146 -0.18218535 -0.056637656 0.10903593 0.029045189 -0.12047461 0.0800489 0.026525203 0.35509607 0.029324843 0.041026648 -0.052835815 -0.017277967 0.043957148 -0.11035902 0.01573895 -0.15671384 0.1842604 -0.0022800681 -0.0424358 0.0024236983 -0.109379575 0.02253365 0.10589157
40 0.05656268 -0.032472406 -0.007143294 -0.004026414 0.06586573 0.049130414 0.048251253 -0.092891715 0.16720875 0.0054422203 0.16546017 0.12555806 0.032914802 0.0023897672 0.0045276424 -0.0393467 0.032084018 -0.04387967 0.16461696 0.116658926 -0.0120348325 0.13853611 0.0731581 0.03841477 -0.058213294 -0.058756214 0.06089685 -0.083819784 0.053889424 0.026985977 -0.028653529 0.05486877 -0.28240988 -0.12616146 -0.07312054 0.04839188 -0.16916767 0.072568975 0.079841144 0.015452001 0.087260045 -0.19605953 -0.00846018 0.034625124 -0.07813374 0.04813567 -0.16949795 0.1341374 0.053474538 -0.032687306 0.06982047 -0.048179325 -0.011931551 -0.049862295 -0.05853204 0.005950259 -0.29351214 0.067584805 -0.032757957 0.1982336 0.038397457 -0.041181788 -0.31102967 0.09450995 0.064291194 -0.08417188 0.005905277 0.015034113 -0.04882115 -0.06542001 -0.0075310073 0.054524362 0.09268233 0.028452067 0.08364316 0.009597127 0.06068727 0.1531825 -0.07381206 0.11714748 -0.11237558 -0.23386282 -0.04588722 -0.023988908 -0.096184485 0.01992703 -0.10060008 0.0039372575 0.074386746 -0.078227274 -0.083464265 -0.22987594 0.107354626 0.06376149 0.10867305 0.0014012569 -0.25520775 0.26793408 0.05625133 -0.051490784 0.032037795 0.0621078 0.04672014 0.01637271 0.19626059 -0.0760438 0.05660739 -0.05753919 -0.11825739 -0.057358727 0.17754202 -0.20390226 -0.0786782 0.16426611 0.01691042 -0.07932224 -0.011190876 0.07109538 0.17801444 0.040000685 0.052638628 0.13111089 0.017935285 0.07571894 0.13999765 0.021333613 0.13413006 0.1730163 -0.039210927 -0.045481123 -0.033947103 -0.040370222 -0.03816815 -0.08434685 0.14884095 0.0038707508 0.08373296 0.05697471 -0.11744313 0.14390925 0.051669363 -0.054414287 -0.13585669 -0.13437267 -0.01583476 -0.10922124 0.04732527 -0.0799849 0.048000276 0.07680755 -0.05372126 0.09951902 -0.1134912 0.034295883 0.06717935 0.09504957 -0.0462534 -0.21734422 -0.047656853 -0.11504689 0.054799594 0.072176725 -0.14726625 0.046575885 -0.022494294 0.1531901 -0.07831681 0.13260615 0.0365 -0.023028355 0.30554584 0.02289465 0.16327329 0.084764875 -0.07980949 0.058551125 -0.034564514 0.04159673 0.031123374 0.07370954 0.15897344 -0.060513444 0.12991655 -0.07547634 -0.0841735 -0.0035596408 0.024909927 0.061800547 -0.019802134 -0.024803571 0.11171674 0.11207442 0.13472591 -0.12922215 0.20222671 0.27659118 -0.057475515 -0.07571331 -0.04205709 0.0058218585 -0.005522604 0.023323165 0.008282845 0.21767037 -0.010476084 -0.116445385 -0.06781157 0.08803419 -0.026995534 -0.08295214 0.08166684 0.14968674 0.04091632 0.048674796 -0.09890363 0.014941739 -0.0007441229 -0.022130892 -0.0942306 -0.015430016 0.12206649 -0.003976757 -0.0066188965 -0.06550187 0.059107557 0.025615508 -0.003817869 -0.0574969 0.0156205 -0.15914048 -0.013895233 -0.091795504 0.07313471 -0.18517683 -0.057039373 0.111496694 0.031210253 -0.12180509 0.08171394 0.025936255 0.3595353 0.03115792 0.041550193 -0.05224749 -0.018031845 0.041991115 -0.11447481 0.014270202 -0.15976879 0.18416882 -0.0017449008 -0.042780496 0.0035151893 -0.11190462 0.021630222 0.107944526
43 0.057444435 -0.029870855 -0.010816198 -0.0046671513 0.067711815 0.04915368 0.046510518 -0.092868105 0.16672902 0.0044028326 0.16219471 0.124947004 0.030408066 4.992942e-05 0.0037609455 -0.038595352 0.029047167 -0.04271622 0.16610534 0.1163564 -0.012020543 0.13763233 0.072252296 0.04102669 -0.05729018 -0.056586962 0.060201664 -0.08445197 0.05589577 0.02686448 -0.028196737 0.055530977 -0.28024632 -0.12502895 -0.070918076 0.048999544 -0.1686704 0.07393962 0.08142219 0.017836792 0.08624271 -0.19859435 -0.011115561 0.0362518 -0.07672137 0.04758779 -0.17287087 0.13674384 0.05594964 -0.029876666 0.070546046 -0.048775483 -0.009376035 -0.052568153 -0.059009887 0.005961273 -0.29413053 0.06789163 -0.03200003 0.19612616 0.04152702 -0.040537916 -0.30976304 0.09140165 0.06525534 -0.083724156 0.0069871508 0.0135189835 -0.05196602 -0.06777847 -0.007696465 0.05159269 0.09604872 0.0276302 0.08167452 0.011019075 0.060338084 0.15337762 -0.07122968 0.115629315 -0.11213118 -0.2338107 -0.045117244 -0.026393915 -0.09798245 0.019176075 -0.09835409 0.0033937343 0.07444427 -0.07534713 -0.083773315 -0.23012544 0.10585719 0.06426693 0.112606876 -0.0006734011 -0.25625354 0.2675875 0.05675803 -0.051910087 0.032185238 0.060185287 0.046049345 0.019990817 0.19800073 -0.07725586 0.058851767 -0.058965847 -0.11896444 -0.05769371 0.17806324 -0.20212881 -0.08176806 0.16341324 0.014399647 -0.07846847 -0.008598884 0.0728796 0.17907947 0.037546154 0.05339999 0.13365547 0.019550709 0.07174516 0.13989483 0.022291355 0.13267197 0.17649518 -0.03745674 -0.046158206 -0.03224362 -0.037752427 -0.038178016 -0.08693378 0.14790064 0.0031949838 0.08362019 0.057072658 -0.118150294 0.14374818 0.051158626 -0.05501027 -0.13579284 -0.1316972 -0.016635487 -0.11070688 0.049555264 -0.0793724 0.046253648 0.07720329 -0.053299744 0.09964548 -0.112059854 0.037587658 0.06731881 0.09674044 -0.04865408 -0.21695323 -0.04453249 -0.11456184 0.054880887 0.07215231 -0.1476072 0.04771539 -0.023208683 0.15474534 -0.07915129 0.13315585 0.035355374 -0.022667967 0.30341706 0.022067936 0.16527547 0.08210032 -0.08127618 0.059050266 -0.035804495 0.042006098 0.031525314 0.071374625 0.15770705 -0.06009859 0.1304593 -0.07248824 -0.08381177 -0.0021940358 0.024974097 0.06108893 -0.023243638 -0.026270915 0.1106081 0.11369096 0.1329752 -0.1325286 0.20049398 0.27402046 -0.05726772 -0.07916086 -0.04058883 0.006221386 -0.0057338667 0.02504908 0.0067416145 0.21863583 -0.011574835 -0.11733854 -0.069190845 0.087639734 -0.030035242 -0.0832171 0.08044517 0.1523775 0.040552016 0.049442086 -0.09917774 0.013802612 0.0019732388 -0.023105688 -0.09476505 -0.015265426 0.122182876 -0.0018636141 -0.006594857 -0.06762751 0.059616342 0.02448375 -0.0020892464 -0.05529773 0.017773282 -0.1573943 -0.01254866 -0.08957693 0.06996527 -0.18599422 -0.055129055 0.10945638 0.028570129 -0.11960551 0.07988775 0.025199719 0.358843 0.030163033 0.04160221 -0.05219992 -0.016882254 0.043288965 -0.113402255 0.0135502415 -0.15774573 0.18634744 -0.0012839374 -0.0432576 0.003513939 -0.11256819 0.023588434 0.105101876
51 0.05572725 -0.029849483 -0.0092340475 -0.001528964 0.06363457 0.049122937 0.045945138 -0.09157986 0.16737196 0.0041351165 0.16480637 0.122052595 0.0340355 0.0013758475 0.005550927 -0.0407481 0.029081702 -0.043700375 0.1653643 0.11447521 -0.0132860225 0.1371749 0.073308624 0.038643707 -0.055970233 -0.059831493 0.061941147 -0.08251061 0.056572016 0.027371328 -0.027332116 0.055408683 -0.2784544 -0.12263258 -0.072923146 0.050090775 -0.16587248 0.074317046 0.07763228 0.017026644 0.08688165 -0.19623134 -0.009576322 0.0329671 -0.07734907 0.048310686 -0.17157023 0.13248031 0.055524442 -0.029926334 0.06756638 -0.047559984 -0.008801834 -0.05207812 -0.057736807 0.0051929643 -0.29093608 0.06795133 -0.032758266 0.19509062 0.03850061 -0.03940597 -0.30797657 0.09046629 0.064463176 -0.08346549 0.004233983 0.011913533 -0.04957204 -0.0646868 -0.007076519 0.053917933 0.09322123 0.030381318 0.08262909 0.010881117 0.058431584 0.14848316 -0.0706614 0.116648935 -0.110044286 -0.23228908 -0.044725854 -0.025500193 -0.09393696 0.019022876 -0.10000972 0.004138831 0.07473394 -0.07747832 -0.08015344 -0.22771856 0.10756206 0.06294712 0.11011259 -0.0017659039 -0.25374556 0.26725197 0.054522246 -0.0511017 0.033292755 0.059752196 0.046599288 0.019059328 0.19635917 -0.0766241 0.056438044 -0.05823501 -0.11680825 -0.054800536 0.1768611 -0.20186791 -0.08117071 0.1628914 0.013486559 -0.07823 -0.009689785 0.072631635 0.17672677 0.036389817 0.05188894 0.13199228 0.017177844 0.07260391 0.13822837 0.022112928 0.13145046 0.17477567 -0.03788623 -0.044988986 -0.030192664 -0.039278787 -0.03829289 -0.0841465 0.14636762 0.003807447 0.08325707 0.053434823 -0.11499232 0.14407079 0.047292817 -0.05544636 -0.13682295 -0.129536 -0.014939724 -0.109316476 0.046145942 -0.078200825 0.046875227 0.077446036 -0.05690244 0.099176876 -0.11063079 0.036450945 0.068130955 0.093352385 -0.047199685 -0.21670942 -0.047072906 -0.113594726 0.05076692 0.071446866 -0.14721496 0.049672298 -0.022670718 0.15458691 -0.078445554 0.1305321 0.035354957 -0.021541735 0.30346853 0.02371305 0.16201456 0.08402968 -0.078786105 0.055566028 -0.03637993 0.040896047 0.033845603 0.07222953 0.15482838 -0.06082834 0.12812251 -0.075184636 -0.08051361 -0.0047215708 0.026227346 0.05949871 -0.020813625 -0.028067494 0.10785843 0.112786494 0.13367026 -0.13109407 0.2017714 0.2726625 -0.056394197 -0.0769378 -0.04129892 0.0047171423 -0.006968081 0.023333076 0.0070076864 0.21669412 -0.010504151 -0.11701289 -0.067090474 0.08732874 -0.028107625 -0.08184416 0.07896344 0.14785704 0.040268395 0.0490903 -0.09907392 0.015116342 -8.101266e-05 -0.019874262 -0.09222171 -0.012476235 0.12036286 -0.00013854059 -0.005296421 -0.063421145 0.05954206 0.024159217 -0.00420036 -0.057522234 0.019355126 -0.15845753 -0.013347319 -0.09159793 0.07235715 -0.18212727 -0.057275724 0.10992169 0.031822823 -0.1193295 0.08286751 0.025957169 0.35522977 0.030904768 0.04188056 -0.051960744 -0.017335163 0.042375218 -0.11321125 0.013422049 -0.15963045 0.18705921 -0.0035066353 -0.043981094 0.0015952365 -0.11043537 0.02334067 0.10764269
37 0.054031618 -0.02974425 -0.010485472 -0.005094515 0.06706156 0.050565902 0.045435734 -0.094482094 0.16575214 0.0035115946 0.15983285 0.12257245 0.03014116 0.0016787865 0.004257254 -0.038571235 0.03225605 -0.042555977 0.16290842 0.111664966 -0.013179446 0.13449462 0.073424496 0.03966621 -0.055627644 -0.056978315 0.05786008 -0.080833994 0.054897744 0.026860083 -0.028210258 0.053549945 -0.27585053 -0.124555446 -0.0730883 0.048852365 -0.16527347 0.07210591 0.078541555 0.018440496 0.08425054 -0.19434655 -0.012035223 0.032841124 -0.076501176 0.047461264 -0.16951403 0.13331524 0.05458085 -0.02860566 0.067247555 -0.046186477 -0.008561694 -0.05223988 -0.054691963 0.0054626795 -0.2889456 0.06734923 -0.032298762 0.1941609 0.040367816 -0.039513327 -0.30463257 0.091877945 0.06490757 -0.08162363 0.0043625324 0.012062592 -0.051087055 -0.06533834 -0.0058513638 0.05364272 0.09364326 0.028657218 0.079691105 0.009884169 0.060038812 0.14962183 -0.071781926 0.116028205 -0.11272993 -0.230084 -0.04645546 -0.023106644 -0.09557764 0.017338015 -0.09947954 0.0020758419 0.073463105 -0.07701022 -0.080995195 -0.22443496 0.10682019 0.06288009 0.110633075 0.0012515787 -0.25007805 0.26545608 0.05683055 -0.052833717 0.03189397 0.05980189 0.046963707 0.016379798 0.19490413 -0.07481939 0.055562448 -0.057227045 -0.11438009 -0.05821407 0.17433947 -0.20134693 -0.078501426 0.16069192 0.016777663 -0.07557057 -0.010538264 0.071594186 0.17690788 0.03883544 0.05128597 0.12955028 0.019660808 0.07361624 0.13736059 0.019947872 0.13181767 0.17394954 -0.037336126 -0.04513775 -0.032073453 -0.039673526 -0.03755363 -0.08533541 0.14735779 0.0038160197 0.08160207 0.054024577 -0.1132437 0.14073448 0.049194567 -0.052770507 -0.13470109 -0.13156602 -0.017701961 -0.109229885 0.048427034 -0.07830527 0.045288865 0.07640209 -0.05183833 0.09800143 -0.1122129 0.036888584 0.066417456 0.09433375 -0.048137303 -0.2146344 -0.046363667 -0.11235314 0.052571505 0.071350604 -0.14546964 0.046947196 -0.022524914 0.15344332 -0.07807355 0.13057414 0.033413436 -0.022462618 0.30133253 0.0216428 0.16213013 0.080763325 -0.078868724 0.05796347 -0.035616983 0.041872136 0.031056037 0.07204387 0.15375087 -0.06127926 0.12522954 -0.07077001 -0.08019569 -0.0041267076 0.025144268 0.061073802 -0.019218646 -0.024201537 0.11045757 0.1116936 0.13028349 -0.1287893 0.19703658 0.2724981 -0.055337742 -0.07668266 -0.04025873 0.005483955 -0.008414319 0.023894664 0.0058091367 0.21305034 -0.010433796 -0.11776254 -0.06679762 0.08914284 -0.028745467 -0.08188397 0.08089464 0.14851643 0.04139943 0.046664387 -0.0966979 0.013667492 0.0010218874 -0.020740023 -0.09291668 -0.015038653 0.1189933 -0.002337706 -0.0073046247 -0.066705264 0.05591258 0.023155032 -0.0049745943 -0.055301856 0.015892513 -0.15626521 -0.012253998 -0.09106921 0.071214475 -0.18130037 -0.05720661 0.11009078 0.030148119 -0.11897704 0.08103125 0.024690643 0.35177884 0.029753337 0.04054375 -0.0526953 -0.01937293 0.04304297 -0.112791054 0.016208583 -0.15521769 0.18124071 -0.0020946586 -0.041013684 0.0017579517 -0.111519754 0.022237249 0.10665807
32 0.055745393 -0.029507661 -0.010447751 -0.0045120264 0.06766682 0.048780993 0.047621086 -0.09293223 0.1676158 0.0047453996 0.16321228 0.12471685 0.032104902 0.000103909944 0.0053577246 -0.03971128 0.031063525 -0.044161923 0.16617577 0.11537163 -0.012120852 0.13831972 0.074888736 0.041033704 -0.05608879 -0.06038958 0.062460385 -0.08324898 0.056815986 0.026860464 -0.029465316 0.053002737 -0.28145686 -0.12717214 -0.07254521 0.050710984 -0.168049 0.07343109 0.08084312 0.015361143 0.08449881 -0.19669259 -0.010785183 0.03398893 -0.07813103 0.047597397 -0.17173566 0.13676184 0.054952543 -0.032570038 0.07028763 -0.048386835 -0.008537048 -0.051938225 -0.05661349 0.00696443 -0.29577175 0.06680005 -0.03410455 0.1980209 0.040059444 -0.040292643 -0.3101908 0.09360332 0.06415651 -0.084897764 0.005540466 0.014393428 -0.0500093 -0.06694033 -0.006907012 0.05428418 0.0935351 0.0285912 0.0819854 0.010715634 0.062072996 0.15099673 -0.07196734 0.115464814 -0.11417901 -0.23343976 -0.048381023 -0.026212797 -0.09786391 0.020540781 -0.09828865 0.0018276193 0.075033285 -0.07687733 -0.08335932 -0.2269952 0.108180374 0.064261034 0.11252641 0.0016824277 -0.25414237 0.26881993 0.056893356 -0.05100169 0.03320751 0.062243875 0.045536228 0.017839998 0.19531569 -0.07663681 0.05541045 -0.056385837 -0.11759301 -0.05648811 0.17616121 -0.20196292 -0.08212602 0.163062 0.016129423 -0.07824549 -0.008230121 0.07320688 0.17651139 0.0410981 0.05425164 0.13318163 0.019619264 0.07209816 0.13862312 0.02419857 0.13227724 0.17402291 -0.038707305 -0.045031387 -0.03334502 -0.039460182 -0.037696555 -0.085623 0.14742318 0.004898177 0.08386192 0.055259302 -0.11503992 0.14417326 0.048601482 -0.055150576 -0.13595334 -0.13017432 -0.017948197 -0.11120952 0.047451034 -0.07826186 0.047080215 0.076964594 -0.05390788 0.09788733 -0.11325003 0.037477642 0.07011185 0.09634845 -0.04668334 -0.21606556 -0.04691034 -0.11288534 0.0525618 0.07132675 -0.14575607 0.04650673 -0.022032471 0.1539041 -0.08018106 0.13095166 0.036069408 -0.024145858 0.30626297 0.023487324 0.16412316 0.08132726 -0.082510814 0.056632563 -0.03591455 0.040921062 0.031833686 0.071326666 0.15680625 -0.06153466 0.13056761 -0.073609166 -0.081917316 -0.0034160358 0.027351229 0.062572934 -0.02117096 -0.026982592 0.1101434 0.11177242 0.13127469 -0.12901464 0.20005196 0.27648854 -0.05854029 -0.077627145 -0.03914763 0.004011444 -0.0058672973 0.025477255 0.009377697 0.2183848 -0.010229108 -0.116466135 -0.06916214 0.08883931 -0.02697778 -0.083782375 0.0823353 0.15181349 0.040646277 0.04667447 -0.0974967 0.015497062 -0.0002935036 -0.022256231 -0.09433302 -0.01331363 0.12102037 -0.0016788258 -0.0056967516 -0.06707725 0.058856666 0.02309574 -0.0033005737 -0.057442963 0.017409857 -0.16000307 -0.012759772 -0.09167936 0.071536146 -0.18605167 -0.057764832 0.11048286 0.030208955 -0.11982107 0.08372293 0.027162096 0.35816857 0.028557742 0.04040993 -0.050759953 -0.018332975 0.04390933 -0.11111104 0.0146351075 -0.15809835 0.18588494 -0.0010312756 -0.041146256 0.0034256224 -0.11120236 0.023146775 0.10536995
18 0.05656763 -0.028984483 -0.010669603 -0.0015061275 0.06469434 0.049604207 0.0470825 -0.09372855 0.1665362 0.0051683458 0.16135864 0.12264489 0.030254342 0.0026170048 0.006895643 -0.03825149 0.028974596 -0.0440866 0.16240594 0.11342486 -0.013432248 0.1349076 0.073223434 0.037560076 -0.057509027 -0.05840446 0.058999117 -0.08188848 0.053121686 0.025918016 -0.026348254 0.05180401 -0.27742508 -0.12594731 -0.073412426 0.048606314 -0.16774388 0.07428573 0.07754899 0.01754743 0.08409372 -0.19460307 -0.010877257 0.032700308 -0.076546215 0.04567003 -0.16893297 0.13489029 0.05562853 -0.03210229 0.06935197 -0.046888575 -0.0081861075 -0.052559566 -0.05651195 0.0040892125 -0.2907251 0.06535904 -0.030922286 0.1958028 0.03860593 -0.03851112 -0.30577746 0.09360431 0.06321465 -0.08417356 0.0033790267 0.01242264 -0.050078023 -0.06639179 -0.0060328287 0.051242772 0.09253391 0.028165318 0.08227776 0.011273832 0.060584288 0.14898433 -0.071818955 0.113943994 -0.11208554 -0.23003359 -0.045587543 -0.02337307 -0.09533698 0.019170221 -0.09658002 0.0024169718 0.07541879 -0.07419009 -0.080158025 -0.22513303 0.10746244 0.06268103 0.109572254 -0.0016184589 -0.25329888 0.26456398 0.054962814 -0.053338975 0.030645043 0.06032931 0.045808945 0.016894598 0.19495334 -0.075292185 0.05511011 -0.055946015 -0.11798002 -0.05583217 0.17659102 -0.20129608 -0.07890622 0.15957624 0.014902196 -0.07666293 -0.011674825 0.07391717 0.17719753 0.03705223 0.0529011 0.1305369 0.020706873 0.07116034 0.13823748 0.02237467 0.13270359 0.1717487 -0.037671804 -0.044310253 -0.032611772 -0.03826149 -0.034860983 -0.08296312 0.14688116 0.0030952871 0.08203117 0.0545703 -0.11645765 0.14343208 0.050144374 -0.054641306 -0.13576852 -0.1309528 -0.017950935 -0.11065982 0.0463792 -0.07876156 0.04732363 0.077440195 -0.05397278 0.09914415 -0.11152294 0.035661 0.06720164 0.09436809 -0.046901032 -0.21600007 -0.0473157 -0.11273866 0.05139235 0.07124679 -0.14532189 0.045570664 -0.02341843 0.15319042 -0.07563128 0.13130315 0.032885775 -0.021006256 0.300926 0.020692289 0.16044553 0.08173435 -0.08041884 0.05726733 -0.036473963 0.04251344 0.031807434 0.07276383 0.15626748 -0.058197107 0.12816487 -0.07148993 -0.08275468 -0.0027141233 0.02405533 0.06110811 -0.0193249 -0.026255274 0.107284546 0.1091851 0.1307819 -0.13096328 0.19904305 0.2721639 -0.055124182 -0.07740259 -0.04147803 0.0028942337 -0.00805786 0.025281303 0.008466841 0.21613288 -0.012721611 -0.11646835 -0.06707106 0.086407185 -0.02785026 -0.08152151 0.08058092 0.14839324 0.04182967 0.048716173 -0.096870005 0.015769934 0.0009128952 -0.023013536 -0.09112789 -0.01373388 0.122553416 0.00011624522 -0.0039768703 -0.065652736 0.058906697 0.025629098 -0.0033193713 -0.053879377 0.016021572 -0.15799761 -0.013105144 -0.09141983 0.07150046 -0.18144143 -0.05575423 0.110043705 0.029492173 -0.121016994 0.07949901 0.027422698 0.35326988 0.028127514 0.038963392 -0.0534912 -0.019239761 0.04178044 -0.11333949 0.015083953 -0.15848179 0.18473017 -0.0019516107 -0.042202156 0.003480423 -0.110122696 0.023281641 0.10690918
94 0.055400353 -0.029719273 -0.007875203 -0.00369207 0.06693117 0.05059103 0.045407653 -0.09347581 0.16957211 0.0061660525 0.16760193 0.12811214 0.030827962 0.0034499182 0.0070735714 -0.038637146 0.030917512 -0.04281378 0.16660136 0.11410688 -0.010697731 0.14086574 0.07604091 0.038826223 -0.05579852 -0.057693418 0.06097249 -0.08427906 0.055320915 0.026790349 -0.027462963 0.052951556 -0.2845087 -0.12561461 -0.073704 0.049183983 -0.16878232 0.075814806 0.079643555 0.01656436 0.08859617 -0.2010069 -0.012409917 0.03662252 -0.0777807 0.04910311 -0.17176959 0.13471356 0.054594234 -0.030732581 0.07119395 -0.048403602 -0.009348646 -0.050253145 -0.057170015 0.0056822663 -0.29676956 0.06667053 -0.03346159 0.19721372 0.03805192 -0.041268803 -0.31084493 0.092263 0.06581868 -0.08703066 0.004342274 0.013476436 -0.049154628 -0.067033246 -0.0046769083 0.05323596 0.09409967 0.0293094 0.08067422 0.010394572 0.06254017 0.15422438 -0.07403352 0.11983981 -0.11273694 -0.23741452 -0.048792593 -0.025078245 -0.09795817 0.019408112 -0.10231712 0.0016267983 0.07418417 -0.07765768 -0.083122216 -0.23121491 0.11043337 0.065477446 0.11293576 -0.0011476993 -0.2586219 0.26863226 0.058814514 -0.05243916 0.033231445 0.06198586 0.048112284 0.019410577 0.1973379 -0.0784045 0.059914347 -0.05773276 -0.119218335 -0.058278635 0.18122938 -0.20454165 -0.08026876 0.16603065 0.014064217 -0.08050531 -0.008286832 0.074753985 0.17988718 0.03950743 0.05342359 0.13347636 0.01941366 0.07521792 0.14218728 0.022366863 0.13602899 0.17481846 -0.038829044 -0.044655044 -0.032674257 -0.040263448 -0.03788232 -0.08622845 0.14829311 0.0024394004 0.084469214 0.05747675 -0.11567105 0.14465082 0.04829842 -0.055570904 -0.1376176 -0.1315349 -0.018643837 -0.11209424 0.047121268 -0.079350114 0.047326505 0.08002429 -0.056939617 0.100502945 -0.11399648 0.03553674 0.07111498 0.09490253 -0.048806857 -0.21970908 -0.047343805 -0.11641216 0.051307086 0.07272618 -0.14870441 0.04938645 -0.023836141 0.156077 -0.077139445 0.1335892 0.034484755 -0.022840746 0.3088506 0.02443068 0.16483842 0.08514005 -0.08391758 0.057635494 -0.035338826 0.043200392 0.034512337 0.07383022 0.16056877 -0.0596073 0.1283618 -0.074628726 -0.08342062 -0.0009381878 0.026038133 0.062732376 -0.019581866 -0.024291854 0.109963246 0.11179047 0.13269918 -0.13044669 0.20351222 0.2783019 -0.057236888 -0.07633584 -0.041486397 0.0054917075 -0.008922827 0.026506893 0.009450523 0.21991602 -0.01306144 -0.11866568 -0.06951908 0.08968445 -0.027154531 -0.08287072 0.08279053 0.15354975 0.042551592 0.046873566 -0.101180226 0.015326472 0.0026024648 -0.022546096 -0.09573494 -0.012220877 0.12424093 -0.0004242413 -0.004989039 -0.066483475 0.06089588 0.024762994 -0.005362104 -0.055107307 0.019218845 -0.16205704 -0.015483403 -0.09308831 0.07240557 -0.18565668 -0.05627654 0.11249347 0.03336729 -0.12408152 0.0842559 0.027531309 0.36369398 0.030043969 0.040341716 -0.050668802 -0.018395614 0.042249314 -0.11555864 0.016886037 -0.16089144 0.18846567 -0.0030131899 -0.042269412 0.002845488 -0.11363464 0.021840688 0.10802867
23 0.056006413 -0.028507346 -0.007749554 -0.0019160828 0.06548926 0.04878089 0.04561157 -0.093943916 0.16958304 0.006338271 0.16636898 0.12770197 0.03191003 0.0012131431 0.005938548 -0.039893396 0.030490939 -0.04346998 0.16731909 0.1156637 -0.011777551 0.1401796 0.07330618 0.039328102 -0.058063425 -0.057808142 0.0595296 -0.083460286 0.056454588 0.026447972 -0.029367017 0.05514393 -0.2843832 -0.12433644 -0.07276406 0.048597258 -0.17032157 0.07394151 0.0808242 0.01869163 0.087883875 -0.19695486 -0.009201218 0.03680236 -0.07705772 0.049456637 -0.17313491 0.135787 0.056070026 -0.032576524 0.06994899 -0.049287837 -0.009206517 -0.052870207 -0.057012495 0.0049705184 -0.2952945 0.06829996 -0.034345638 0.19732133 0.04052102 -0.040888052 -0.3120276 0.09265003 0.063929886 -0.08605638 0.0066580647 0.014944372 -0.05120382 -0.06476067 -0.0053627426 0.054743126 0.09599914 0.030763352 0.08348045 0.009681732 0.061664514 0.15275815 -0.07011946 0.11612746 -0.11361949 -0.23345672 -0.047680113 -0.025493255 -0.09853422 0.020938529 -0.10155882 0.002152206 0.07394083 -0.076369815 -0.08323252 -0.23089741 0.10777236 0.06451411 0.11145867 -0.0018652072 -0.2570924 0.26977733 0.058117464 -0.052695032 0.032820206 0.060983818 0.048547953 0.018645031 0.19879231 -0.078067966 0.056925062 -0.05798398 -0.118580066 -0.05584395 0.17722037 -0.20210238 -0.080335885 0.16511473 0.015567852 -0.07947352 -0.010315004 0.07247013 0.17929755 0.03886681 0.05417033 0.13249247 0.019621478 0.075953394 0.1419167 0.021283792 0.13408926 0.17721519 -0.038213152 -0.045398924 -0.03323771 -0.039409764 -0.038182285 -0.08372523 0.15100533 0.0044316775 0.08354758 0.057009127 -0.11528017 0.14645593 0.051114112 -0.0536131 -0.13849635 -0.13235685 -0.015867542 -0.11224189 0.047882788 -0.080491036 0.04887973 0.07834598 -0.057140347 0.09947765 -0.11087914 0.034589246 0.06985045 0.09701107 -0.048420265 -0.22045867 -0.04473699 -0.11547455 0.053670567 0.07429499 -0.14868198 0.048142787 -0.024530867 0.15432969 -0.07839613 0.13380179 0.036839332 -0.02403596 0.30747426 0.024003379 0.16227183 0.08522039 -0.08296269 0.05843347 -0.035665922 0.044554234 0.03139776 0.07187224 0.15732823 -0.06167444 0.12774648 -0.07410869 -0.08137479 -0.003773879 0.026376 0.06286907 -0.021626607 -0.027650787 0.110504806 0.11355519 0.13346933 -0.1337524 0.20395637 0.27758655 -0.05499732 -0.07886515 -0.042511754 0.0065052677 -0.0059160697 0.02357849 0.00606047 0.22125787 -0.012242071 -0.118707865 -0.06742739 0.09145442 -0.02972403 -0.08612199 0.08316508 0.15076648 0.040880438 0.048339464 -0.09704919 0.012909664 0.0014220503 -0.021464517 -0.095206365 -0.014070931 0.12503274 0.00020674575 -0.007124973 -0.06466399 0.058137707 0.024373561 -0.0017736653 -0.058044452 0.017956432 -0.15917893 -0.011940926 -0.09095179 0.07053551 -0.18353347 -0.056907173 0.11119147 0.03158041 -0.12397951 0.080656044 0.026310688 0.36183032 0.032201868 0.040505413 -0.05100455 -0.016292974 0.045353066 -0.11283548 0.016722972 -0.16059554 0.18811384 -0.0038357407 -0.041429564 0.004863669 -0.11095352 0.022308722 0.10923408
88 0.05489349 -0.031087693 -0.009536498 -0.0016912129 0.065145396 0.04914513 0.04716886 -0.09055446 0.16437921 0.007496607 0.15975355 0.12400531 0.029818293 0.002767227 0.0060281465 -0.040087458 0.030592702 -0.041491773 0.16260685 0.11370311 -0.011993454 0.13513088 0.07194778 0.036896616 -0.055155024 -0.058357276 0.05987613 -0.08188816 0.05504462 0.02595139 -0.025661813 0.053401913 -0.2767535 -0.12399479 -0.0718466 0.04805822 -0.16479622 0.07242593 0.07950508 0.016859515 0.084410906 -0.19251966 -0.011369923 0.03466475 -0.07805417 0.0453788 -0.16831388 0.13218962 0.053590737 -0.028058166 0.06665753 -0.049215205 -0.010534009 -0.051065076 -0.05723115 0.005548319 -0.28929266 0.06665209 -0.032788306 0.19185829 0.040543657 -0.037200287 -0.3040232 0.09209195 0.0653176 -0.083510146 0.004140226 0.0132331215 -0.050832517 -0.06471333 -0.0045171734 0.05076379 0.09288434 0.030465908 0.081249006 0.007598846 0.058598574 0.14786969 -0.070167 0.11575945 -0.11210132 -0.23002325 -0.044004414 -0.023285037 -0.09579582 0.018642163 -0.09652869 0.0050574113 0.07464919 -0.07492419 -0.08039274 -0.22532642 0.10454732 0.062209617 0.108017705 0.00068432663 -0.2517634 0.26351002 0.055268604 -0.05109147 0.031987403 0.060540076 0.04834019 0.018244551 0.19315608 -0.07648503 0.0554812 -0.057160974 -0.1142787 -0.05672415 0.17468727 -0.19963679 -0.07685373 0.15965837 0.016081927 -0.07619246 -0.01004799 0.07336142 0.17427452 0.037606724 0.051312603 0.1298978 0.01694616 0.07265274 0.13592228 0.020271676 0.12909377 0.1716829 -0.036628682 -0.04588961 -0.031205155 -0.03774209 -0.03492806 -0.08457475 0.14568307 0.0030377721 0.084023066 0.053320657 -0.11439915 0.14199221 0.050009575 -0.05217361 -0.13480994 -0.13018197 -0.01798436 -0.10766018 0.04794303 -0.07660249 0.04490287 0.07682587 -0.053101644 0.09698393 -0.10970828 0.036482763 0.06645842 0.094392695 -0.045587067 -0.21453485 -0.044878066 -0.11216657 0.05143706 0.070393324 -0.14196119 0.046355374 -0.0220813 0.15101205 -0.07765988 0.12812173 0.03469208 -0.020130536 0.29712242 0.023077127 0.15817568 0.08032756 -0.079459734 0.05553003 -0.03416747 0.04032022 0.030986708 0.07203541 0.15274274 -0.060610775 0.124534935 -0.073869884 -0.0820178 -0.0019045768 0.025370914 0.062439576 -0.019437274 -0.025364872 0.110134386 0.10872163 0.12991002 -0.1274055 0.1964141 0.2708567 -0.055767834 -0.07718801 -0.04054001 0.004746922 -0.008063537 0.02411112 0.0066251536 0.2137812 -0.01033983 -0.11482672 -0.06604881 0.08910844 -0.025761545 -0.08166965 0.07839413 0.14927532 0.04165225 0.046967994 -0.095524356 0.014256485 0.0010246912 -0.02105875 -0.09408635 -0.014515097 0.11947429 -0.0017686292 -0.0062238686 -0.06502634 0.059033215 0.026092846 -0.0029237603 -0.05579581 0.01897145 -0.156772 -0.0120691955 -0.09034039 0.06829503 -0.18171372 -0.054595467 0.1101162 0.028728608 -0.117724515 0.08105188 0.02519831 0.35084626 0.029524563 0.04237603 -0.05204163 -0.01663522 0.044135742 -0.112530924 0.014841696 -0.15563677 0.18294388 -0.0040740394 -0.042021915 0.001547336 -0.11149282 0.02342908 0.106174484
68 0.054987215 -0.029994473 -0.007038504 -0.0034665612 0.06768705 0.048939582 0.04838203 -0.09450206 0.16733354 0.005973766 0.16756827 0.12547563 0.03308993 0.0017759716 0.0039709 -0.041067787 0.029504307 -0.045572303 0.16811956 0.11376857 -0.011356854 0.138711 0.0754598 0.040340375 -0.05660056 -0.060324915 0.06319695 -0.08316907 0.057426233 0.02803357 -0.029246328 0.055956267 -0.28173557 -0.12712222 -0.07398114 0.049742263 -0.17057408 0.07487883 0.07905848 0.017490543 0.088429995 -0.19850405 -0.0096722515 0.035522405 -0.07648822 0.04910303 -0.1729685 0.13733955 0.05555842 -0.030291485 0.070201054 -0.04768621 -0.010388024 -0.05285339 -0.05597916 0.007651836 -0.29461554 0.06903126 -0.030824115 0.19897301 0.040330004 -0.041146085 -0.31084427 0.09430468 0.065090805 -0.087527916 0.0034822507 0.01348838 -0.051796794 -0.065767445 -0.004928546 0.05394849 0.09562038 0.029954221 0.081202924 0.009600879 0.06180321 0.15050271 -0.07096526 0.11885019 -0.11217201 -0.23530133 -0.047721475 -0.025810456 -0.09878462 0.020439174 -0.10124889 0.0021765216 0.07575946 -0.07600425 -0.08160647 -0.2286798 0.107799895 0.06494946 0.11144566 0.0013321367 -0.258308 0.27068818 0.057242822 -0.05116233 0.032296445 0.06422521 0.048024267 0.018623127 0.19733578 -0.0768477 0.056596644 -0.058324423 -0.120214015 -0.058593407 0.18101405 -0.20499031 -0.08020036 0.16356356 0.013397624 -0.07994488 -0.008592642 0.07258352 0.17817132 0.038992297 0.05333955 0.13383815 0.02088106 0.07596739 0.1419413 0.022023845 0.13523965 0.17625025 -0.038490143 -0.045900043 -0.031813066 -0.040267378 -0.0355195 -0.08511734 0.15104531 0.0029672033 0.08318536 0.056013316 -0.11494391 0.14614187 0.05061742 -0.05536055 -0.13726981 -0.13101597 -0.01600974 -0.111494064 0.049800165 -0.07927043 0.048601747 0.07975936 -0.056500167 0.09900618 -0.113342516 0.036399364 0.068320364 0.096639246 -0.049079545 -0.2182368 -0.04798227 -0.113727 0.053872265 0.07146646 -0.14552295 0.049086124 -0.023209782 0.15547359 -0.07710762 0.13269919 0.035092566 -0.021605833 0.30675605 0.02462087 0.16586304 0.08208473 -0.082841046 0.059111822 -0.036085516 0.04286185 0.03509947 0.07421116 0.15660267 -0.05975002 0.13015532 -0.07487811 -0.08470894 -0.0025323047 0.027485566 0.06290798 -0.023569342 -0.026241504 0.11066561 0.11403646 0.13380788 -0.13333212 0.20442936 0.27712172 -0.05856279 -0.07728371 -0.043092832 0.0029616952 -0.009239725 0.025290916 0.0077938302 0.21980028 -0.012393135 -0.11982015 -0.070963085 0.088721834 -0.02882938 -0.08331253 0.081445 0.15288378 0.04124224 0.049879804 -0.10105972 0.015934048 0.0025657967 -0.02298425 -0.09580003 -0.01281873 0.1242591 -0.0029811491 -0.006107414 -0.06537337 0.05912987 0.025170613 -0.0042819805 -0.057670034 0.01618047 -0.1612315 -0.01547099 -0.09291037 0.07104737 -0.18372637 -0.056855578 0.11125248 0.03086315 -0.12394531 0.08213102 0.02535584 0.3610207 0.031168949 0.041894183 -0.051971417 -0.016676143 0.04287176 -0.11375189 0.016777499 -0.16026592 0.18647513 -0.0022662752 -0.04140943 0.0039665313 -0.11214536 0.025080709 0.10729906
